tree
version=v3
num_class=1
num_tree_per_iteration=1
label_index=0
max_feature_idx=240
objective=regression
feature_names=stock_id wap1_sum wap1_mean wap1_std wap2_sum wap2_mean wap2_std log_return1_sum log_return1_realized_volatility log_return1_mean log_return1_std log_return2_sum log_return2_realized_volatility log_return2_mean log_return2_std wap_balance_sum wap_balance_mean wap_balance_std price_spread_sum price_spread_mean price_spread_std bid_spread_sum bid_spread_mean bid_spread_std ask_spread_sum ask_spread_mean ask_spread_std total_volume_sum total_volume_mean total_volume_std volume_imbalance_sum volume_imbalance_mean volume_imbalance_std wap1_sum_450 wap1_mean_450 wap1_std_450 wap2_sum_450 wap2_mean_450 wap2_std_450 log_return1_sum_450 log_return1_realized_volatility_450 log_return1_mean_450 log_return1_std_450 log_return2_sum_450 log_return2_realized_volatility_450 log_return2_mean_450 log_return2_std_450 wap_balance_sum_450 wap_balance_mean_450 wap_balance_std_450 price_spread_sum_450 price_spread_mean_450 price_spread_std_450 bid_spread_sum_450 bid_spread_mean_450 bid_spread_std_450 ask_spread_sum_450 ask_spread_mean_450 ask_spread_std_450 total_volume_sum_450 total_volume_mean_450 total_volume_std_450 volume_imbalance_sum_450 volume_imbalance_mean_450 volume_imbalance_std_450 wap1_sum_300 wap1_mean_300 wap1_std_300 wap2_sum_300 wap2_mean_300 wap2_std_300 log_return1_sum_300 log_return1_realized_volatility_300 log_return1_mean_300 log_return1_std_300 log_return2_sum_300 log_return2_realized_volatility_300 log_return2_mean_300 log_return2_std_300 wap_balance_sum_300 wap_balance_mean_300 wap_balance_std_300 price_spread_sum_300 price_spread_mean_300 price_spread_std_300 bid_spread_sum_300 bid_spread_mean_300 bid_spread_std_300 ask_spread_sum_300 ask_spread_mean_300 ask_spread_std_300 total_volume_sum_300 total_volume_mean_300 total_volume_std_300 volume_imbalance_sum_300 volume_imbalance_mean_300 volume_imbalance_std_300 wap1_sum_150 wap1_mean_150 wap1_std_150 wap2_sum_150 wap2_mean_150 wap2_std_150 log_return1_sum_150 log_return1_realized_volatility_150 log_return1_mean_150 log_return1_std_150 log_return2_sum_150 log_return2_realized_volatility_150 log_return2_mean_150 log_return2_std_150 wap_balance_sum_150 wap_balance_mean_150 wap_balance_std_150 price_spread_sum_150 price_spread_mean_150 price_spread_std_150 bid_spread_sum_150 bid_spread_mean_150 bid_spread_std_150 ask_spread_sum_150 ask_spread_mean_150 ask_spread_std_150 total_volume_sum_150 total_volume_mean_150 total_volume_std_150 volume_imbalance_sum_150 volume_imbalance_mean_150 volume_imbalance_std_150 trade_log_return_realized_volatility trade_seconds_in_bucket_count_unique trade_size_sum trade_order_count_mean trade_log_return_realized_volatility_450 trade_seconds_in_bucket_count_unique_450 trade_size_sum_450 trade_order_count_mean_450 trade_log_return_realized_volatility_300 trade_seconds_in_bucket_count_unique_300 trade_size_sum_300 trade_order_count_mean_300 trade_log_return_realized_volatility_150 trade_seconds_in_bucket_count_unique_150 trade_size_sum_150 trade_order_count_mean_150 log_return1_realized_volatility_mean_stock log_return1_realized_volatility_std_stock log_return1_realized_volatility_max_stock log_return1_realized_volatility_min_stock log_return2_realized_volatility_mean_stock log_return2_realized_volatility_std_stock log_return2_realized_volatility_max_stock log_return2_realized_volatility_min_stock log_return1_realized_volatility_450_mean_stock log_return1_realized_volatility_450_std_stock log_return1_realized_volatility_450_max_stock log_return1_realized_volatility_450_min_stock log_return2_realized_volatility_450_mean_stock log_return2_realized_volatility_450_std_stock log_return2_realized_volatility_450_max_stock log_return2_realized_volatility_450_min_stock log_return1_realized_volatility_300_mean_stock log_return1_realized_volatility_300_std_stock log_return1_realized_volatility_300_max_stock log_return1_realized_volatility_300_min_stock log_return2_realized_volatility_300_mean_stock log_return2_realized_volatility_300_std_stock log_return2_realized_volatility_300_max_stock log_return2_realized_volatility_300_min_stock log_return1_realized_volatility_150_mean_stock log_return1_realized_volatility_150_std_stock log_return1_realized_volatility_150_max_stock log_return1_realized_volatility_150_min_stock log_return2_realized_volatility_150_mean_stock log_return2_realized_volatility_150_std_stock log_return2_realized_volatility_150_max_stock log_return2_realized_volatility_150_min_stock trade_log_return_realized_volatility_mean_stock trade_log_return_realized_volatility_std_stock trade_log_return_realized_volatility_max_stock trade_log_return_realized_volatility_min_stock trade_log_return_realized_volatility_450_mean_stock trade_log_return_realized_volatility_450_std_stock trade_log_return_realized_volatility_450_max_stock trade_log_return_realized_volatility_450_min_stock trade_log_return_realized_volatility_300_mean_stock trade_log_return_realized_volatility_300_std_stock trade_log_return_realized_volatility_300_max_stock trade_log_return_realized_volatility_300_min_stock trade_log_return_realized_volatility_150_mean_stock trade_log_return_realized_volatility_150_std_stock trade_log_return_realized_volatility_150_max_stock trade_log_return_realized_volatility_150_min_stock log_return1_realized_volatility_mean_time log_return1_realized_volatility_std_time log_return1_realized_volatility_max_time log_return1_realized_volatility_min_time log_return2_realized_volatility_mean_time log_return2_realized_volatility_std_time log_return2_realized_volatility_max_time log_return2_realized_volatility_min_time log_return1_realized_volatility_450_mean_time log_return1_realized_volatility_450_std_time log_return1_realized_volatility_450_max_time log_return1_realized_volatility_450_min_time log_return2_realized_volatility_450_mean_time log_return2_realized_volatility_450_std_time log_return2_realized_volatility_450_max_time log_return2_realized_volatility_450_min_time log_return1_realized_volatility_300_mean_time log_return1_realized_volatility_300_std_time log_return1_realized_volatility_300_max_time log_return1_realized_volatility_300_min_time log_return2_realized_volatility_300_mean_time log_return2_realized_volatility_300_std_time log_return2_realized_volatility_300_max_time log_return2_realized_volatility_300_min_time log_return1_realized_volatility_150_mean_time log_return1_realized_volatility_150_std_time log_return1_realized_volatility_150_max_time log_return1_realized_volatility_150_min_time log_return2_realized_volatility_150_mean_time log_return2_realized_volatility_150_std_time log_return2_realized_volatility_150_max_time log_return2_realized_volatility_150_min_time trade_log_return_realized_volatility_mean_time trade_log_return_realized_volatility_std_time trade_log_return_realized_volatility_max_time trade_log_return_realized_volatility_min_time trade_log_return_realized_volatility_450_mean_time trade_log_return_realized_volatility_450_std_time trade_log_return_realized_volatility_450_max_time trade_log_return_realized_volatility_450_min_time trade_log_return_realized_volatility_300_mean_time trade_log_return_realized_volatility_300_std_time trade_log_return_realized_volatility_300_max_time trade_log_return_realized_volatility_300_min_time trade_log_return_realized_volatility_150_mean_time trade_log_return_realized_volatility_150_std_time trade_log_return_realized_volatility_150_max_time trade_log_return_realized_volatility_150_min_time
feature_infos=-1:73:61:97:58:14:124:27:55:33:107:105:39:50:60:118:8:78:41:84:110:115:43:63:20:102:26:75:40:122:80:52:6:11:23:18:48:114:88:68:104:123:37:116:120:113:69:77:81:9:36:51:62:85:7:100:125:89:93:109:119:103:38:67:15:30:22:31:108:64:32:3:56:13:74:86:70:59:16:19:5:2:34:35:87:0:83:28:47:99:17:46:96:112:44:66:90:72:82:95:21:53:29:126:1:76:42:101:98:10:94:4 [24.002597029442374:625.08085665127157] [0.92996344564275568:1.0634033365043356] [2.2215769835926089e-05:0.027159656631171508] [24.001006544012778:625.02006532911548] [0.93032698947076498:1.0632444582861358] [3.3715756545129433e-06:0.027027326767114664] [-0.088611080615988616:0.077204677680375824] [0.00012030501281321316:0.08642098370439609] [-0.00042707209747521699:0.00023923216971591] [7.966961369940659e-06:0.0065640943852767197] [-0.089246334977277672:0.077585013014460399] [2.0333373046354698e-05:0.13590178088459279] [-0.00029032968390897202:0.0002268695429468119] [9.7501421617652388e-07:0.010777709814404079] [0.0049310966262644529:2.0021661871422554] [8.2184943771074211e-06:0.01243581482697053] [6.4293897031256694e-06:0.0090840863072956576] [0.01599813811480999:4.6283469200134277] [2.6663563403417356e-05:0.018920412287116051] [0:0.01026920998438579] [0.0016348361968994141:1.0262819528579712] [1.196879838971654e-05:0.0048238039016723633] [0:0.0056786114840367483] [-1.3806561231613159:-0.0019128322601318359] [-0.005933741107583046:-1.6669684555381536e-05] [0:0.0061509733345802052] [1054:449600224] [21.958333333333332:940569.14444444445] [9.7848304942609232:377909.06679037045] [688:265003844] [13.263888888888889:558411.47777777782] [10.288049943075007:340902.41539788625] [1.0018358664079146:160.76877389125943] [0.90625927248672344:1.093665128511969] [0:0.020558265802497092] [1.001475684713609:160.75561212451035] [0.90658784986512719:1.0935755926837438] [0:0.021165238039624026] [-0.034788244966891708:0.043969462377216995] [0:0.050549946875661542] [-0.00066867232424017067:0.00052201634843399491] [0:0.0059980116004912992] [-0.033845481629163177:0.043971733300867073] [0:0.093195955473655695] [-0.0012347499267308106:0.00079617208482698956] [0:0.014735303832950838] [0.00038209875878236765:0.85803534286406746] [6.1631517628173545e-06:0.0209276912893675] [4.9025724624794509e-06:0.0096932332590933847] [0.00090648076729848981:1.3007739782333374] [2.5526369427097961e-05:0.022536983713507652] [0:0.0077657928163475101] [4.0411949157714844e-05:0.38007140159606934] [4.5299530029296875e-06:0.0092700337991118431] [0:0.0063499176263225538] [-0.49305891990661621:-4.2676925659179688e-05] [-0.0067107467912137508:-4.8180422709265258e-06] [0:0.0061420884647511277] [23:117076260] [7.666666666666667:929176.66666666663] [0.70710678118654757:260323.6032126823] [5:63669717] [2.5:489767.05384615384] [0.70710678118654757:241073.60527071086] [7.0008988827466965:319.23984326426154] [0.91543561472462487:1.0858498070212979] [0:0.022795092057404154] [6.998066352519678:319.21285663126417] [0.91601801358182156:1.0857580157525992] [1.1969570016384773e-06:0.022815670997675116] [-0.048982337516148798:0.072135544663783635] [0:0.065006567979507116] [-0.00049510044128898978:0.00037444401195786502] [0:0.0075015435957520027] [-0.041297231380606411:0.070128945963504732] [5.3600384559680254e-06:0.11148921801834509] [-0.00055097426762437684:0.00034500326934598245] [3.2950851060548105e-07:0.0120211780047913] [0.0010396652443215304:1.2451007970975552] [8.1854660359529743e-06:0.014311503414914427] [5.9599691134648193e-06:0.010713711434729212] [0.0064043663442134857:2.7291431427001953] [2.6168319891439751e-05:0.022376719862222672] [0:0.010462069083810241] [0.00029301643371582031:0.52509099245071411] [5.3275716709322296e-06:0.0052543999627232552] [0:0.0063357340749202132] [-0.76675689220428467:-0.00044214725494384766] [-0.0085155032575130463:-6.8287790782051161e-06] [0:0.0062588811137309587] [281:221018601] [11.155555555555555:909541.56790123461] [7.6336575291748101:360939.96714823093] [103:118562693] [5.1555555555555559:447406.38867924525] [5.3342802189747642:322242.8156331667] [14.001002068752829:472.41527536269416] [0.9246170742294656:1.0712364520696012] [2.1545343460464294e-05:0.026762342416873464] [13.999183475440098:472.42389889047564] [0.92511702629193981:1.0712560065543666] [1.8755010469611512e-06:0.026622308498090736] [-0.063487164137845983:0.065131569287030511] [0.00011155278615976224:0.07715825930886426] [-0.00038586915318696371:0.00022395300509482787] [8.4259567653346645e-06:0.0066609758037184733] [-0.060438684197579112:0.066359382714118301] [1.1907093648490827e-05:0.12989142641140675] [-0.00041976380383073258:0.0002446197987410129] [8.1743205756391486e-07:0.011435373548384017] [0.0027706056787470956:1.6616738599292251] [7.8802273800228209e-06:0.012782106614840194] [6.3872772712152388e-06:0.0097201667375460734] [0.010966206900775433:3.9230101108551025] [2.636859608173836e-05:0.019128348678350449] [0:0.01085093264337769] [0.00038957595825195312:0.7538607120513916] [5.1943461585324258e-06:0.0044843344949185848] [0:0.0056733694851237009] [-1.0542001724243164:-0.00087225437164306641] [-0.0066845454275608063:-1.0025912160926964e-05] [0:0.0063103281164805809] [687:324830471] [22.657894736842106:909087.32069970842] [10.718199515472971:397506.53697727044] [366:190643489] [13.843416370106761:497763.67885117495] [10.884921121607315:346599.35251910129] [0:0.047142572700977325] [1:600] [1:4072663] [1:91] [0:0.022547120228409767] [1:150] [1:667729] [1:107] [0:0.032250881195068359] [1:300] [1:1643906] [1:107] [0:0.040611755102872849] [1:450] [1:2731014] [1:107] [0.0015234115098067852:0.0094929596625163148] [0.0012263706471775041:0.005834076442421619] [0.012177304807545046:0.08642098370439609] [8.0657291616880136e-05:0.001580899212769686] [0.0016603402442942293:0.013939906387206024] [0.001216979710736333:0.0089249898692523397] [0.012273953520715296:0.13590178088459279] [7.8787518985797141e-06:0.0022861555375846493] [0.00073223420061472536:0.0043121126874347063] [0.00061053214947578906:0.0028969309551706707] [0.0060701613550582382:0.050549946875661542] [0:0.00044772842661161159] [0.00080123095037114679:0.0063562174856108692] [0.00060604527147608005:0.0044603006058554469] [0.006132381240245669:0.093195955473655695] [0:0.00056192417189204476] [0.0010468151279620854:0.0063550817328885834] [0.00085958463163865982:0.0040667931329047583] [0.0091458834366071225:0.065006567979507116] [0:0.00078627190131572849] [0.0011443384193131143:0.0094029029642238044] [0.00085336077291198577:0.0062034767733663036] [0.0092389110591288241:0.11148921801834509] [3.2185451749367176e-06:0.0010040066000617767] [0.0012985085161607238:0.0079992032044652293] [0.0010554463705172048:0.0050044723578509384] [0.011226550465601837:0.07715825930886426] [6.6535510104919783e-05:0.001171022128909197] [0.0014172747302492064:0.011809764222895765] [0.0010471180306735168:0.0076531591982655391] [0.011455091427815606:0.12989142641140675] [7.7355594260837073e-06:0.0015661539291266149] [0.0013599015073850751:0.0062492708675563335] [0.0010737463259238606:0.0046318465453246025] [0.010701806284487247:0.047142572700977325] [0:0.00081977114314213395] [0.00065534800523892045:0.0029478739015758038] [0.00053503812658363609:0.0021625658749440625] [0.0050612860359251499:0.023928681388497353] [0:0.00029410861316137016] [0.00093706470215693116:0.004247862845659256] [0.00075308787234709066:0.0030433118946447753] [0.007657982874661684:0.032250881195068359] [0:0.00048996822442859411] [0.0011610626243054867:0.0053151613101363182] [0.00092381193821184065:0.0038257178249524824] [0.0094400243833661079:0.040611755102872849] [0:0.00072945666033774614] [0.00128439577529674:0.03813721832657193] [0.00053371477528912274:0.013512925885169544] [0.0034195116566160472:0.08642098370439609] [8.0657291616880136e-05:0.012177304807545046] [0.0018350317975737215:0.049646535999405376] [0.00086823567029325392:0.020832388758033064] [0.0046569684160754094:0.13590178088459279] [7.8787518985797141e-06:0.012273953520715296] [0.00058726593832478236:0.016392288570546691] [0.00028056308084265869:0.0072376530263395574] [0.0016592652560534268:0.050549946875661542] [0:0.0054603419545611138] [0.00082648004324117777:0.021870921309173185] [0.00044796094709503766:0.011589258690088934] [0.002359199140539987:0.093195955473655695] [0:0.0061062175109914685] [0.00088673154885419102:0.024615039482469275] [0.00036977883664772644:0.0097474425915887383] [0.0022858214399431608:0.065006567979507116] [0:0.0091458834366071225] [0.0012712182805250005:0.032333365521249408] [0.00058818400780570764:0.014111141322444398] [0.0029927654987455046:0.11148921801834509] [3.2185451749367176e-06:0.0092389110591288241] [0.001096024242900603:0.031129056622348938] [0.00047867089950306085:0.011169438368675511] [0.0029709261741106604:0.07715825930886426] [6.6535510104919783e-05:0.011226550465601837] [0.0015771251033084696:0.040050750077754403] [0.0007598356472450059:0.016618714609828018] [0.0042461137862698133:0.12989142641140675] [7.7355594260837073e-06:0.011455091427815606] [0.0008265661308541894:0.021149326115846634] [0.00032725169478608107:0.0061690203808411111] [0.0021213127765804529:0.047142572700977325] [0:0.0097911236807703972] [0.00038739800220355392:0.0092849563807249069] [0.00017578283562290971:0.0033758587923630248] [0.0010373276891186833:0.023928681388497353] [0:0.0033464252483099699] [0.00058294431073591113:0.014287229627370834] [0.00023003974522303345:0.0045265758992555517] [0.0013115592300891876:0.032250881195068359] [0:0.007372833788394928] [0.00071043381467461586:0.01773681677877903] [0.00028366028958171704:0.0049853267126691008] [0.0018805249128490686:0.040611755102872849] [0:0.0083182100206613541]
tree_sizes=7204 7361 7369 7354 7363 7489 7377 7506 7445 7499 7486 7633 7563 7606 7594 7550 7489 7506 7142 7546 7478 7487 7538 7388 7428 7463 7341 7289 7081 7329 7356 7175 7291 7184 7362 7180 7301 7226 7220 7227 7200 7204 7187 7242 7316 7225 7253 7223 7331 7219 7198 7258 7400 7208 7165 7415 7098 7351 7186 7347 7388 7340 7428 7345 7205 7118 7265 7178 7340 7025 7298 7311 7309 7429 7254 7066 7356 7369 7199 7422 7386 7198 7236 7265 7292 7268 7389 7338 7263 7337 7326 7214 7371 7221 7232 7290 7021 7094 7260 7344 7303 7104 7357 7455 7200 7237 7329 7074 7197 7216 7365 7274 7034 7303 7442 7167 7331 7374 7273 7258 7228 7277 7415 7352 7072 7285 7126 7024 7122 7225 7212 7374 7084 7230 7377 7318 7356 7261 7344 7244 7276 7236 7421 7426 7378 7314 7368 7371 7328 7291 7378 7335 7282 7429 7477 7343 7295 7450 7305 7234 7317 7281 7445 7309 7023 7215 7304 7288 7356 7324 7296 7116 7269 7273 7228 7263 7428 7098 7326 7265 7126 7363 7340 7020 7271 6983 7271 7255 7370 7237 7253 7360 7188 7244 7377 7203 7052 7356 7165 7380 7230 7053 7314 7439 7100 7146 7076 7216 7226 7403 7094 7148 7129 7487 7007 7061 7128 7258 7436 7312 7442 7425 7091 7308 7337 7439 7304 7329 7230 7012 7353 7222 7380 7039 7312 7226 7369 7066 7173 7346 7219 7133 7497 7255 7343 7373 7266 7162 7142 7233 7273 7397 7350 7266 7049 7309 7268 7136 7306 7282 7180 7355 7020 7206 7345 7348 7176 7249 7307 7257 7000 7076 7436 7397 7230 7436 7159 7257 7251 7167 7145 7128 7049 7148 7227 7057 7222 7368 7140 7202 7066 6960 7182 7433 7110 7276 7150 7391 7224 7311 7144 7061 7203 7150 7408 7091 7172 7071 7428 7484 7300 7422 7191 7179 7091 7140 7414 7347 7105 7417 7177 7356 7275 7322 7307 7196 7265 7112 7258 7279 7472 7186 7431 7110 7191 7331 7203 7444 7142 7352 7366 7072 7136 7326 7245 7314 7474 7141 6984 7247 7403 7054 7458 7185 7072 7216 7439 7058 7068 7205 7285 7087 7102 7096 7026 7482 7169 7212 7421 7054 7098 7211 7535 7234 7075 7265 7192 7367 7189 7010 7085 7096 7063 7259 7174 7075 7201 7307 7067 7239 7134 7043 7087 7040 7441 7113 7266 6982 7160 7078 7082 7085 7046 7255 7117 7373 7236 7192 7078 7277 7030 7068 7097 7105 7270 7187 7182 7127 7101 7154 7231 7072 7113 7101 7498 7200 7181 7096 7208 7448 7010 7026 7095 7033 7062 7047 7082 7025 7111 7142 7151 7301 7064 6971 7300 7240 7256 7168 7282 7390 7010 7051 6953 7131 7227 7147 7093 7027 7072 7022 7135 7252 7087

Tree=0
num_leaves=59
num_cat=10
split_feature=8 104 8 72 8 8 12 72 32 19 104 82 8 8 8 8 12 200 8 226 216 216 44 0 8 0 217 104 44 200 137 68 72 108 0 8 76 12 0 133 229 76 216 72 44 74 44 114 229 0 129 132 0 0 0 0 108 0
split_gain=39949.7 10423 7692.63 2300.54 2045.94 1248.22 1246.95 483.763 455.217 442.567 421.599 344.569 344.539 250.233 214.45 196.406 187.764 154.207 152.506 114.403 113.731 94.7447 83.9822 70.5523 69.7293 67.7856 63.1982 59.2882 57.7006 54.953 50.8357 45.2335 43.3988 43.1844 38.4065 38.3406 35.6397 34.5639 33.4871 33.2805 32.0467 31.9139 31.487 30.9835 30.4923 30.4791 29.7283 28.8268 28.3557 27.8654 27.2708 26.9452 26.5076 25.3942 25.2397 23.8296 23.6997 23.0723
threshold=0.0026756330954929111 0.0046179801199150465 0.0014707579810906389 0.0062585343308350517 0.0036216449005336418 0.0020618760901782132 0.0011836962134805231 0.0093217798136724667 20819.620206792126 0.0015077144489623608 0.0058897006612916242 0.31422737240791326 0.0043214860058649095 0.0011753400742391532 0.0017892706690340735 0.0030583415318895324 0.00082155520199718251 0.0032991237514900019 0.002326901670621525 0.0019778519072969577 0.0016860539313806745 0.0033995937560144843 0.0032937393579604971 0 0.0048240089328594688 1 0.0017105073714769059 0.008830553206844104 0.0017452805024613545 0.0023509140913950031 0.001657960703596473 209.41648872225485 0.012625246115190661 0.0019496931538507849 2 0.0010265476400947787 0.0030806682573995725 0.0019350769720318476 3 0.0010568445431999864 0.00077241798862814914 0.0022680655708470746 0.0011017207289532175 0.0076530583083220501 0.0010025699038158852 0.00091501723817150819 0.0012211848688222064 0.31420023739337927 0.00077241798862814914 4 0.00049546893569640826 12.396428571428574 5 6 7 8 0.0039891637881828189 9
decision_type=2 2 2 2 2 2 2 2 2 2 2 2 2 2 2 2 2 2 2 2 2 2 2 9 2 9 2 2 2 2 8 2 2 2 9 2 2 2 9 10 2 2 2 2 2 2 2 2 2 9 10 10 9 9 9 9 2 9
left_child=2 4 6 10 11 9 16 17 18 14 22 15 23 35 33 41 50 27 46 24 25 32 52 36 39 -12 -10 -5 54 34 37 -13 -9 -4 -24 -8 -6 -15 -20 -14 -25 -2 55 -19 -16 -23 51 -22 -40 -29 -1 -7 -3 -30 -17 -26 -42 -27
right_child=1 3 5 7 12 8 13 21 26 -11 20 31 19 30 44 28 -18 43 38 -21 47 45 29 40 42 57 -28 49 53 -31 -32 -33 -34 -35 -36 -37 -38 -39 48 -41 56 -43 -44 -45 -46 -47 -48 -49 -50 -51 -52 -53 -54 -55 -56 -57 -58 -59
leaf_value=0.001661771904168313 0.0018527858218819469 0.0020073129176003393 0.001764728745543674 0.002281973106405179 0.0018799290133369817 0.0018051139399453504 0.0017120426656194361 0.002608778877671834 0.0016429818642376812 0.0016472416111890399 0.0022226882344677451 0.0016433891697667854 0.0019721186166774536 0.0017403405365940558 0.0017815685655435678 0.0018534689260051335 0.0016983441317931986 0.0024694090190015686 0.0018603183097513406 0.0019484233454832238 0.0022391207362297818 0.0028834117355239996 0.0021305758407663515 0.0019298085433009956 0.0020517884449998015 0.0021664620773648165 0.0017680237556909016 0.002463058470552735 0.001896800000412345 0.0021636073145737456 0.0016442304679661558 0.0018026231106264294 0.0028913258557959178 0.001779367384935828 0.0020717784366400724 0.0017260500897496802 0.0019356692077319069 0.0017538082604656217 0.001822327234681865 0.0020148085042367169 0.0019439233738570601 0.0018766316034694408 0.0020693492379284559 0.0026116827399539242 0.0017990322705577738 0.0032271306729937301 0.0018213840998300794 0.0023216163607341473 0.0018433995547067082 0.0023349074167223994 0.0016802357004600747 0.0016865415008824255 0.0020726962007600654 0.0019200644265374212 0.0018939047857829731 0.0019984060809000851 0.0019743153423770836 0.0020920011736883229
leaf_weight=2389326178.9453125 713109594.59423828 84464252.906738281 5126989857.661377 83105287.194641113 159073761.97363281 1248007028.3355713 3681275454.0585938 27982357.661621094 146518706.98046875 252778078.21777344 160893737.85894775 62645931.8828125 262387702.86914062 6235616133.5673828 1272800975.5097656 218885932.3125 4684221939.3867188 41099000.969024658 856751479.39990234 260015956.04248047 92207213.016113281 8538525.7909393311 208100883.22814941 277899156.48242188 163989122.75030518 89314173.842285156 55818302.873046875 39036494.907836914 639167154.69311523 188258058.56958008 50893711.2734375 24942659.814453125 6747167.655456543 3320347372.4165039 238325473.48925781 4164880766.6132812 411302645.97912598 2744271349.3945312 846263506.32226562 600688322.7767334 338189416.53588867 2635573193.4162598 295802602.67871094 24391669.953674316 4661543505.0131836 3697083.1930541992 3205627107.4046631 78353304.380004883 2602105979.512207 30016024.669189453 1202557180.8242188 19464112.21875 233223809.22467041 1764349715.5490723 523697264.90820312 170636078.34179688 1063329207.3083496 77920840.094482422
leaf_count=577 4210 1410 11930 3983 1200 4711 3670 2983 23 78 6319 15 3583 10149 3701 1340 3377 3183 5396 3047 3801 1451 5816 2965 3295 2896 173 2988 5358 5930 11 125 1208 9414 5283 5359 4499 5568 3859 10050 3800 18885 6385 2577 16458 1045 14252 4126 14121 1666 534 19 5156 17151 4260 2691 14342 1897
internal_value=0.00179605 0.00195709 0.00175543 0.00218574 0.00192004 0.00179642 0.00171695 0.00245691 0.00182577 0.00177841 0.00213629 0.00188575 0.00197641 0.00173254 0.00178072 0.00188841 0.00168515 0.0023941 0.00182919 0.00200964 0.00221078 0.00274798 0.00209729 0.00195051 0.0020203 0.00217635 0.00167748 0.00233887 0.00190635 0.00211829 0.00174389 0.00168873 0.00266367 0.00177048 0.00209919 0.00171948 0.00192012 0.00174446 0.00184262 0.00200183 0.00196083 0.00187155 0.00204558 0.0025224 0.00179529 0.00298727 0.00181626 0.00227702 0.00183823 0.00240735 0.00166795 0.00180329 0.00205531 0.00191388 0.00188199 0.00202457 0.00196698 0.00213177
internal_weight=0 1.23014e+10 4.87681e+10 1.71568e+09 1.05857e+10 2.3615e+10 2.5153e+10 2.64614e+08 8.98056e+09 1.46345e+10 1.45106e+09 6.58237e+09 4.00331e+09 1.68769e+10 1.43817e+10 6.49478e+09 8.27611e+09 2.17648e+08 8.77822e+09 1.75352e+09 4.98689e+08 4.69651e+07 9.52372e+08 2.24979e+09 1.4935e+09 3.28129e+08 2.02337e+08 1.52158e+08 3.1461e+09 6.34684e+08 9.03078e+09 8.75886e+07 3.47295e+07 8.44734e+09 4.46426e+08 7.84616e+09 5.70376e+08 8.97989e+09 4.30512e+09 8.63076e+08 1.67942e+09 3.34868e+09 6.30428e+08 6.54907e+07 5.93434e+09 1.22356e+07 4.4731e+09 1.70561e+08 3.44837e+09 6.90525e+07 3.59188e+09 1.26747e+09 3.17688e+08 2.40352e+09 7.42583e+08 3.34625e+08 1.40152e+09 1.67235e+08
internal_count=284299 170919 113380 63718 107201 84135 29245 21084 42554 41581 42634 51344 55857 24757 41503 51204 4488 14397 42358 29051 19039 6687 23595 26806 26004 11112 196 8637 28109 17029 15728 140 4191 21344 11099 9029 5699 15717 23376 13633 21107 23095 12371 5760 20159 2496 18982 7927 17980 4654 1111 4730 6566 22509 5600 5986 18142 4793
cat_boundaries=0 4 8 12 16 20 24 28 32 36 40
cat_threshold=3492290709 269009540 541065549 671631884 147065162 1635778848 76765696 1074798739 138709834 1627390208 1083382272 1342316659 138674762 1635778914 1083857408 1346764819 2281965418 1098907936 76749312 1074217010 2151178276 338199204 38011225 555237896 3491831941 270648960 537133373 537416204 3498049669 472433280 553656581 671112008 138677866 3783266304 9656320 1409298483 132657 2214596674 1076372484 340197484
shrinkage=1


Tree=1
num_leaves=59
num_cat=11
split_feature=8 104 8 104 8 8 8 72 83 42 104 18 8 8 8 10 12 216 8 216 111 44 81 44 216 0 0 76 0 97 216 137 12 226 12 224 12 0 0 216 141 0 0 46 8 8 226 226 8 0 0 224 0 0 229 208 224 8
split_gain=32359.4 8353.95 6330.27 1877.18 1617.96 1102.06 968.745 420.043 388.415 335.583 304.536 292.223 230.885 216.488 215.822 180.999 127.152 123.348 102.084 101.686 100.766 88.5147 68.2721 65.104 60.7184 56.066 54.9364 50.0627 49.3735 49.2602 43.4362 41.4093 38.4436 37.9077 37.4997 36.657 35.173 33.9563 33.7311 33.2924 32.5997 31.1091 31.1055 31.0682 30.4359 29.6078 28.314 28.1971 29.3059 27.063 26.811 25.8334 29.6769 25.2123 23.348 22.8342 22.5431 22.3535
threshold=0.0026926641925174742 0.0046179801199150465 0.0014536879799667175 0.0076772879846342124 0.0037476105206697475 0.0021077619699389765 0.00094844282783994316 0.0088998911013418724 0.0015252667944878342 3.3755503622316821e-05 0.0057267133454224272 0.61986902356147777 0.0017557705461885191 0.0031848430895604616 0.0044674670649797492 3.0039871179417293e-05 0.0016062572868832533 0.0016860539313806745 0.0023911179631837579 0.0017501683913831729 0.26757391673270425 0.0024945155580934054 0.00026507062281677651 0.0020247529275254656 0.0014366444759303253 0 1 0.0027847226713915577 2 325.22821292915961 0.0033995937560144843 0.001657960703596473 0.0025769140824603693 0.0019491088680300224 0.0038956560388611556 0.0036179598386890392 0.0022017149562977667 3 4 0.0033995937560144843 0.0021419011754915123 5 6 3.3391845377465878e-05 0.0012476782467578584 0.0011489472473564866 0.0019778519072969577 0.0019778519072969577 0.0077395862507758902 7 8 0.0012923408665232344 9 10 0.00086876956629566859 0.00082113235363509682 0.0012994664620321528 0.0059321860535743627
decision_type=2 2 2 2 2 2 2 2 2 10 2 2 2 2 2 2 2 2 2 2 2 2 2 2 2 9 9 2 9 2 2 8 2 2 2 2 2 9 9 2 10 9 9 10 2 2 2 2 2 9 9 2 9 9 2 2 2 2
left_child=2 4 6 10 11 8 15 17 12 -7 24 13 36 34 23 -1 22 28 49 25 35 37 45 50 26 -12 -3 -15 -5 -13 38 44 -14 40 -2 -9 -4 -16 -19 -22 -23 54 55 -34 -18 -8 57 48 -21 -11 -6 52 -29 -17 -20 -25 -44 -26
right_child=1 3 5 7 14 9 16 20 -10 18 19 29 32 27 21 53 31 30 41 47 39 33 -24 42 46 -27 -28 51 -30 -31 -32 -33 43 -35 -36 -37 -38 -39 -40 -41 -42 -43 56 -45 -46 -47 -48 -49 -50 -51 -52 -53 -54 -55 -56 -57 -58 -59
leaf_value=-0.00011450931016028775 6.2351733481100252e-05 0.00028191217548520161 -3.0626135715278528e-05 0.0005110792349447517 7.5108441015903646e-05 -0.00013702413571436208 -6.9748086912078524e-05 0.00066919242822956096 -0.00013336330660086127 1.183644830420104e-05 0.00037202317328754813 -0.00012786911178726913 -7.7759640842615683e-06 8.6068543954233886e-05 0.00010913055518919936 -9.0108217149173275e-05 -5.4966925147048252e-05 0.00064592202545442898 7.6610003059758444e-06 0.00041160075018518657 0.00091131305146722487 0.00018994850672164298 -0.00015527862069973132 0.00011212839787776393 0.00028942438707946341 0.00029520512463240779 0.00021936038381390515 7.5105066583521743e-05 0.00038464572040156829 4.6058832427739964e-05 0.00071930204982824408 -0.00013805343387456769 -8.8950099562149317e-05 0.00016400964166367216 8.1687098201851658e-05 0.0008907705818876117 -1.7416849420909706e-05 0.00017548358692793224 0.00051340574438648603 0.0011831214330077916 0.0002312402542487783 5.1038834923163668e-05 0.00015276380377837132 7.3255840585238164e-06 -4.2015348715097851e-05 -5.6574987888832177e-05 0.00024273057990335995 0.00035915569220660291 0.00051064879281043465 2.7905602576471076e-05 0.00012992393152791204 0.00013153251405150095 0.0001147832586506521 -7.5318302327324321e-05 3.9720438488373723e-05 0.00016035691969355499 0.00018015454415826966 0.000349881662793028
leaf_weight=3643725537.0117188 1992090821.581543 255835718.06555176 4639862044.9533691 70111417.490356445 138222969.66601562 119081971.0390625 4456070091.3242188 28617637.92590332 273943242.10449219 1641509565.3551025 186889896.45465088 74087655.30078125 3806088372.9873047 746190823.27978516 111891588.60498047 4266706811.5136719 2884315976.7753906 32211613.5262146 310027351.64697266 76499273.580810547 13445669.243469238 267782373.88378906 84191168 240028803.88867188 129102474.11761475 193264392.42724609 311189758.36315918 226770503.97753906 55209184.136962891 20871097.138671875 24424688.965637207 50069483.3671875 33821193.24609375 142150785.91064453 2020318540.8598633 10102108.775558472 3564388223.7719727 248227671.98461914 47587946.658081055 6778264.4877319336 668575234.21002197 2443685723.796875 752572649.48925781 3743995635.2026367 4891597540.0302734 2764855775.0566406 62629494.409179688 46555786.391601562 49011036.979492188 2899075840.2420654 251738738.96679688 722759221.66821289 1117029739.4907227 1579226855.203125 849906294.41357422 166107407.40673828 500182822.48779297 116208996.60644531
leaf_count=1134 13085 6580 10407 4164 1075 38 4945 2675 82 6570 7008 39 11778 6049 1140 2954 4340 2700 1239 3252 2056 4394 1 2456 3399 5404 6092 1711 2243 139 2434 10 44 1938 15669 1469 9778 3744 2879 1623 13320 14334 9738 13988 9195 4015 1349 1699 2829 13574 2830 7947 11149 1549 4504 2209 7470 3863
internal_value=0 0.000146269 -3.62224e-05 0.000350722 0.000112565 -4.20646e-08 -7.19687e-05 0.000583377 -1.53089e-05 2.96334e-05 0.000303694 8.45751e-05 -1.32605e-05 8.6999e-05 0.000168106 -9.70162e-05 -5.62599e-05 0.000522231 3.20703e-05 0.00036184 0.000821498 0.000197793 -6.5748e-05 0.000147261 0.000266996 0.00033297 0.000247583 0.00010827 0.00045538 -8.96412e-05 0.000602613 -4.74032e-05 -6.82689e-07 0.000212127 7.20874e-05 0.000727003 -2.48873e-05 0.000154867 0.000566897 0.00100241 0.000219432 4.46375e-05 0.000155903 6.46367e-06 -4.68195e-05 -6.47042e-05 0.000302743 0.000425623 0.000450278 2.20963e-05 0.000110494 0.000116287 0.000108087 -8.61129e-05 3.11516e-05 0.000131854 0.0001637 0.000318064
internal_weight=0 1.21233e+10 4.89461e+10 1.71568e+09 1.04076e+10 2.43254e+10 2.46208e+10 2.88489e+08 1.60621e+10 8.26329e+09 1.42719e+09 6.92012e+09 1.57882e+10 6.82516e+09 3.48748e+09 9.48966e+09 1.51311e+10 2.29545e+08 8.1442e+09 5.5222e+08 5.89437e+07 1.43863e+09 7.30512e+09 2.04885e+09 8.74966e+08 3.80154e+08 5.67025e+08 2.81275e+09 1.25321e+08 9.49588e+07 1.04224e+08 7.82598e+09 7.58391e+09 1.07851e+09 4.01241e+09 3.87197e+07 8.20425e+09 3.60119e+08 7.97996e+07 2.02239e+07 9.36358e+08 3.60362e+09 1.65889e+09 3.77782e+09 7.77591e+09 7.22093e+09 3.07941e+08 1.72066e+08 1.2551e+08 4.54059e+09 3.89962e+08 2.06656e+09 1.3438e+09 5.84593e+09 1.15993e+09 4.06136e+08 1.25276e+09 2.45311e+08
internal_count=284299 169820 114479 63718 106102 86336 28143 22243 46077 40259 41475 55788 45995 55610 50314 5637 22506 14420 40221 20192 7823 24536 8961 25778 21283 12412 12672 26856 6407 178 8013 13545 25810 19652 28754 4144 20185 4884 5579 3679 17714 20077 21873 14032 13535 8960 8611 7780 6081 20144 3905 20807 12860 4503 5743 4665 17208 7262
cat_boundaries=0 4 8 12 16 20 24 28 32 36 40 44
cat_threshold=147065178 1635778816 1150507520 1073815699 4459338 1627390208 77289984 1413742707 138676040 1635778848 76765696 1142161459 2418761732 70828672 537133137 671701512 147096184 1098908002 75581456 1078395090 4029161604 268486276 572588157 671107592 3559399569 403751554 541327629 671615624 3761774728 271108736 538969465 671091464 3626508437 270058113 574619713 671631884 3491242116 271844996 570425693 134744844 2952814592 67684873 542122080 671095552
shrinkage=0.1


Tree=2
num_leaves=59
num_cat=11
split_feature=8 104 8 72 8 8 12 104 31 104 19 80 8 8 8 224 8 8 224 44 12 76 44 153 0 44 129 8 226 72 18 200 233 76 216 74 0 0 0 76 216 12 200 0 0 224 229 0 236 12 12 0 129 0 12 0 200 0
split_gain=26216.8 6858.22 5057.84 1684.27 1185.82 939.446 721.482 345.723 329.625 319.568 279.79 230.279 200.786 191.176 160.661 114.224 111.729 99.399 88.8026 87.4354 85.0412 67.3333 59.6561 49.2363 46.0821 39.5509 39.1805 38.681 38.1477 38.1155 36.9096 36.4245 36.0865 34.1858 34.0057 32.5667 30.897 30.8405 30.5213 30.5042 30.4643 29.5419 28.7876 28.0248 25.769 29.7646 25.1677 24.987 26.5326 24.3144 24.0842 22.1363 20.8958 20.7487 20.0908 19.8337 19.6427 18.8167
threshold=0.0026756330954929111 0.0044435406776071442 0.0014160947471584648 0.006125985161069116 0.0035449618607517361 0.0020618760901782132 0.0010942225237135666 0.011715894015783246 30679.589262248439 0.0055835991376197904 0.0015077144489623608 0.0010711515040989783 0.0041904281481791377 0.0016897589600594288 0.0010936579701453463 0.0023641140567964946 0.0030014146173918703 0.002326901670621525 0.0018978327603704074 0.0023045352836713611 0.00082155520199718251 0.017838912315722467 0.0030210574210256724 0.0020817647670448784 0 0.0015971328883181938 0.0032952087931334977 0.0018482778306459621 0.0019491088680300224 0.0079081429441323816 0.37163156270980841 0.0023509140913950031 0.0010117904748767617 0.0064307194953402624 0.001217441095029923 2.7458798691338825e-05 1 2 3 0.0020514402110676315 0.0033995937560144843 0.0016395748931011768 0.0017571851096460376 4 5 0.0012923408665232344 0.00067382751149125408 6 0.00045156899432186043 0.0029617488266502766 0.002062669783710122 7 0.00049546893569640826 8 0.0055012164672708797 9 0.0035468848941249465 10
decision_type=2 2 2 2 2 2 2 2 2 2 2 2 2 2 2 2 2 2 2 2 2 2 2 2 9 2 10 2 2 2 2 2 2 2 2 2 9 9 9 2 2 2 2 9 9 2 2 9 2 2 2 9 10 9 2 9 2 9
left_child=2 4 6 9 11 10 20 15 17 22 13 16 24 50 51 30 47 49 23 38 52 40 57 -11 42 -18 -25 -15 34 -17 -5 37 -10 -20 43 -16 -32 -24 -14 -19 55 -37 -6 -21 -27 -46 -26 -2 -49 -7 -4 -8 -1 -29 -48 -9 -35 -3
right_child=1 3 5 7 12 8 14 21 32 18 -12 -13 19 27 35 29 25 39 33 28 -22 -23 31 26 46 44 -28 53 -30 -31 36 -33 -34 56 -36 41 -38 -39 -40 -41 -42 -43 -44 -45 45 -47 54 48 -50 -51 -52 -53 -54 -55 -56 -57 -58 -59
leaf_value=-0.00010945105757781287 7.4989826587204916e-05 0.00022949021571555029 -3.1760972551520851e-05 0.00030884719096326783 7.4745501537214472e-05 9.6674289207213119e-06 -7.0648837392933226e-05 0.0007424160759103921 -0.0001201895713784878 0.00023397193470755764 -0.00011980599596919429 -0.00012689188979652448 8.123245845006972e-05 -1.135305669565886e-05 -0.00012281904205195632 0.0005239085848935506 6.0087228829583601e-05 2.4237664115410023e-05 0.00032515262163438431 0.00018960754945805263 -8.1888834493980766e-05 0.0010031535914661568 0.00025711401291403206 0.00025823691690964019 8.752248922538566e-05 0.00010574770246193526 0.0003401684237679635 -6.0334459210395629e-06 0.00013114316673785002 0.00066549802696696267 0.00050867763035061613 0.0002798524967680518 -2.2092996823230673e-05 0.00037559137300725338 0.00020300998312894369 -5.2700225488430059e-05 0.00040410902312048826 0.00020903146220201455 0.00014116517352839958 4.3140379024967794e-05 0.00088136040110172841 -4.162205558237963e-05 0.00012009342570979811 0.00015239560155698862 7.4163520787556391e-05 9.9308231822105002e-05 0.00012413459302587225 4.1615599721520736e-05 6.3430841286371534e-05 2.4447248528955863e-05 -2.0560104831879488e-05 -5.8078015838961356e-05 -9.3288807687963595e-05 7.8660202503552466e-06 0.00014875931838510427 0.00057576184378934248 0.00045870442538741766 0.00017270964829556288
leaf_weight=2389326178.9453125 697296474.02978516 83845666.755371094 3640996524.0859375 24225380.046386719 311540080.22521973 2346607019.8027344 4700549775.5234375 15005532.665802002 166833191.66015625 112098361.82092285 256345513.38964844 58415419.081054688 122333845.89770508 3843659979.9790039 56085644.09375 70826999.113464355 520359514.01464844 1174327538.8056641 112601731.02001953 369117865.42645264 3349236073.5957031 10110793.71887207 242302519.24121094 87188201.219482422 140184902.08300781 764553065.66943359 176574906.28033447 1786670336.7148438 170272846.11865234 25989483.784301758 45837631.361938477 208620319.27825928 48374175.775390625 100213317.85876465 467963320.43066406 4233031020.2460938 73674399.828125 296802086.35192871 278227364.95849609 3126944203.5732422 8234125.7451019287 5580599747.8496094 254221039.50976562 448052151.74755859 1189442713.3505859 779149483.75512695 1068571768.4641113 1039578173.1020508 1202315279.9416504 2117470093.4296875 4060577327.4118652 1995490214.7597656 1202557180.8242188 2692376985.4628906 480232719.11962891 13627989.326904297 39702240.171142578 192051067.00097656
leaf_count=577 5347 1880 7618 898 2600 9177 4393 1856 55 2685 82 25 1117 11211 15 5138 3655 5587 4048 6556 2239 2175 6259 2448 1317 7570 6629 5716 2106 2734 3121 5984 158 4355 8907 5906 3655 6092 3767 17777 1410 9806 2853 6575 9473 7368 12426 6148 8378 9800 10297 2432 534 10000 6596 1215 2257 3296
internal_value=0 0.000130462 -3.29023e-05 0.000303046 9.81579e-05 -1.83625e-06 -6.62867e-05 0.000526413 2.4129e-05 0.000264168 -1.6159e-05 7.07251e-05 0.000139875 -1.45009e-05 -5.49464e-05 0.000477955 7.25892e-05 2.7131e-05 0.000320304 0.000164234 -9.33516e-05 0.000774542 0.000229708 0.00028949 0.000119823 8.53559e-05 0.000313086 -3.99375e-06 0.000175621 0.000561917 0.000421401 0.000244372 -9.81395e-05 0.000366167 0.000181514 -4.68348e-05 0.000444215 0.000230642 0.000122861 3.79796e-05 0.000711846 -4.64005e-05 9.51223e-05 0.000169204 9.01668e-05 8.41156e-05 0.000128097 5.84572e-05 5.3315e-05 1.6678e-05 -2.58554e-05 -6.69026e-05 -0.00010404 2.32159e-06 0.00013177 0.000663098 0.000399175 0.000189965
internal_weight=0 1.23014e+10 4.87681e+10 1.93953e+09 1.03618e+10 2.52612e+10 2.35069e+10 2.87532e+08 8.98056e+09 1.652e+09 1.62806e+10 6.25111e+09 4.11072e+09 1.60243e+10 1.65658e+10 2.40554e+08 6.19269e+09 8.76535e+09 6.28379e+08 1.85597e+09 6.94112e+09 4.69784e+07 1.02362e+09 3.75861e+08 2.25475e+09 3.2535e+09 2.63763e+08 8.32271e+09 1.45541e+09 9.68165e+07 1.43737e+08 7.47725e+08 2.15207e+08 2.52517e+08 1.28513e+09 9.86972e+09 1.19512e+08 5.39105e+08 4.00561e+08 4.30127e+09 3.68676e+07 9.81363e+09 5.65761e+08 8.1717e+08 2.73315e+09 1.96859e+09 1.68899e+09 2.93919e+09 2.24189e+09 4.46408e+09 7.70157e+09 6.69604e+09 3.59188e+09 4.47905e+09 1.5488e+09 2.86335e+07 1.39916e+08 2.75897e+08
internal_count=284299 170919 113380 68135 102784 87478 25902 22202 42554 45933 44924 47964 54820 44842 22552 15546 47939 42341 22422 29028 3350 6656 23511 11762 25792 28066 9077 26927 24144 7872 7674 18335 213 10660 22038 15727 6776 12351 4884 23364 4481 15712 5453 13131 24411 16841 20339 19873 14526 18977 17915 6825 1111 15716 19022 3071 6612 5176
cat_boundaries=0 4 8 12 16 20 24 28 32 36 40 44
cat_threshold=3760726165 269009540 570425645 671631884 134481736 1073741856 198656 1073741842 138677066 1635778560 9640448 1410605171 3492438020 136888961 538968129 680024588 147064680 1627394048 9656320 1350709363 679739976 1636045074 10180608 1346764835 142869090 1636041056 2216385024 1346371635 2684903428 1625609 544211553 671093528 3760717836 337694341 33620061 545790472 143000424 1090519072 75827200 1078198391 545524554 1627457552 1091771936 339869731
shrinkage=0.1


Tree=3
num_leaves=59
num_cat=11
split_feature=8 104 8 104 104 8 8 31 104 32 82 114 8 8 106 12 8 12 50 226 224 208 72 76 81 0 133 97 209 153 216 0 212 0 0 0 196 137 0 0 74 72 229 0 0 220 137 0 8 229 216 0 129 196 40 220 8 226
split_gain=21237.3 5390.43 4290.9 1198.7 1095.16 764.744 652.438 282.063 252.41 230.74 226.162 204.291 180.447 135.923 120.863 117.649 115.161 76.8817 72.3016 65.5098 65.4772 58.9194 57.6237 50.4174 49.0339 44.3036 44.0066 43.8438 38.876 38.8378 37.1637 34.9234 33.9989 31.4975 31.1135 29.8332 29.2275 27.9181 27.3977 27.2621 26.4949 26.159 25.941 25.6459 25.4011 28.7846 24.9124 23.2764 22.7319 22.324 22.2201 22.1388 21.9141 20.8822 20.7112 19.6211 19.4018 18.7825
threshold=0.0027273315931300945 0.004713163684479201 0.0015246365728097384 0.0081982846849822828 0.0033313963387831846 0.00094844282783994316 0.0021232997261309088 30679.589262248439 0.0063261184298565093 20819.620206792126 0.3729152530431748 0.46458829939365393 0.0032489213119364581 0.0046167742343838462 2.9073536022424995e-05 0.0016062572868832533 0.0018482778306459621 0.003181576466627849 0.068196054548025145 0.001878139549532515 0.0020727462097970138 0.0015179679302509753 0.012625246115190661 0.0029575369758736343 0.00026507062281677651 0 0.0009179109474644066 325.22821292915961 0.0014037633645420978 0.0020817647670448784 0.0018184480531589896 1 0.00061208919757897013 2 3 4 0.0013512703488959617 0.001668896235059947 5 6 0.00012884274193425483 0.0079081429441323816 0.00071106682298704993 7 8 0.00071007171473978596 0.001657960703596473 9 0.0011998837799219377 0.00062496258760802459 0.0033995937560144843 10 0.0021936551202088599 0.0013512703488959617 0.00098790805613726911 0.00071007171473978596 0.0050895087963405711 0.0020745618514394202
decision_type=2 2 2 2 2 2 2 2 2 2 2 2 2 2 2 2 2 2 2 2 2 2 2 2 2 9 10 2 2 2 2 9 2 9 9 9 2 8 9 9 2 2 2 9 9 2 8 9 2 2 2 9 10 2 2 2 2 2
left_child=2 4 5 8 11 14 7 16 18 17 20 12 31 26 -1 24 33 54 43 37 25 29 50 39 48 -5 -6 -13 -11 -10 35 -2 -33 42 46 -20 -31 -15 -28 -14 -9 57 -4 -3 -19 -46 55 -18 -7 -36 -12 -25 -37 -53 -8 -17 -39 -22
right_child=1 3 6 10 13 15 9 40 21 28 22 27 23 19 -16 34 47 44 30 -21 41 -23 -24 51 -26 -27 38 -29 -30 36 -32 32 -34 -35 49 52 -38 56 -40 -41 -42 -43 -44 -45 45 -47 -48 -49 -50 -51 -52 53 -54 -55 -56 -57 -58 -59
leaf_value=-9.3301219436410333e-05 7.7106528471894206e-05 0.0001531286400313038 -3.4922773191995084e-05 0.00046022620205585848 9.8425840430104626e-05 -5.5502029586020359e-05 6.5358410212447788e-06 -6.0849882576991565e-05 0.00025498924389271463 -0.00011704501250123533 0.00059540041710971672 -0.00010824403516994546 4.5480880907499755e-05 0.00015379203554811906 -7.0003849541591507e-05 -4.7231142509090082e-05 1.9134861138701647e-05 5.2531518108567038e-05 0.00017949014886250449 0.00012328886764569814 0.00053194274802932065 0.00041046910702221699 0.00093368406348537402 0.00011872229018191378 -0.00012880564642053002 0.00032090680743122489 0.00010998632558334198 5.34449743926587e-05 -1.5192734631232404e-05 0.00028401351073219266 0.00030049651844386014 4.1715033932196248e-05 6.3503278475851867e-05 -8.9272072496721319e-06 -3.8745901702075009e-05 0.00016475064570278084 0.00036149303361865024 0.00017858438847986291 0.00014330053153826256 8.4074527389898756e-05 -0.00012019175656357281 0.00059324212910802571 -1.6618373020234444e-05 0.00021247394111190295 2.2353211028797167e-05 4.1180470565697399e-05 -0.00011341048889296967 8.7740102552202108e-07 -4.3043910103906803e-05 -2.6558095883562306e-05 0.00076604257292980406 8.4734290472480466e-05 0.00025815705266779099 0.00010957458756288976 2.2556059116963253e-05 -3.1076132341939489e-05 0.00021228380808809805 0.00041452816979113937
leaf_weight=3569310180.8554688 989858714.3371582 91714228.0625 1034437278.1230469 51243143.123046875 414945444.57568359 5288457975.0898438 1138777138.8521729 113532331.37402344 95212324.173828125 125851661.95703125 23276777.132446289 74877370.5390625 237556930.67675781 258899201.69189453 5920349022.8730469 2573834043.4394531 817305672.76269531 874102004.93066406 68692400.734375 237362499.04101562 29719287.080200195 68657684.847595215 9135810.0747680664 588417660.33447266 84191168 41159882.406982422 321638373.87841797 21610740.194335938 53365702.505859375 78347554.712646484 132237949.70898438 1130428353.0292969 1954354682.807373 4222986098.3066406 2655553276.4990234 27114511.647460938 128614375.69366455 424397625.6038208 1061873999.3907471 797456378.24902344 223067947.3671875 30822064.608688354 3078094261.9787598 353476630.51281738 1385519583.3271484 1961973655.5913086 50246598.921875 4795323695.5058594 2025651200.3144531 3462313184.4638672 11353222.325134277 777409524.73339844 341034501.73858643 599331193.09875488 2769790233.4222412 1062034326.6171875 285962096.01513672 25158125.58493042
leaf_count=1106 8309 1678 2138 3578 4674 6038 4496 168 2946 18 2427 40 1630 4294 4531 3870 3477 5610 1392 3107 2467 3918 2045 7082 1 1809 3814 167 180 2835 4746 7115 14581 12212 4599 544 5973 7968 15526 7356 23 3209 8024 8521 6703 11296 9 16711 3094 7267 1780 7372 10010 6750 12965 2094 6451 1555
internal_value=0 0.000120609 -2.88302e-05 0.000290813 9.3732e-05 -5.59771e-05 3.24024e-06 -9.72021e-06 0.000256247 2.55207e-05 0.00050661 7.24961e-05 7.44672e-05 0.000144409 -7.87666e-05 -4.34052e-05 -7.5373e-06 2.79948e-05 0.000230435 0.000170374 0.000456561 0.000326846 0.000710281 9.3079e-05 -5.29252e-05 0.000398168 0.000126989 -7.203e-05 -8.67164e-05 0.000307846 0.000254049 6.07632e-05 5.55189e-05 -1.49934e-05 -3.62212e-05 0.000239989 0.000332162 0.000181905 0.000135556 7.52165e-05 -0.000100176 0.000519521 -2.12225e-05 0.000200248 3.73517e-05 3.33879e-05 -4.34787e-05 3.53604e-06 -5.20517e-05 -3.18484e-05 0.000651345 0.000102487 0.000251278 9.55479e-05 1.78885e-05 -4.25123e-05 0.00019215 0.000478115
internal_weight=0 1.17834e+10 4.92861e+10 1.60697e+09 1.01764e+10 2.66919e+10 2.25941e+10 1.42847e+10 1.3851e+09 8.30938e+09 2.21868e+08 7.1713e+09 7.07481e+09 3.00508e+09 9.48966e+09 1.72023e+10 1.39481e+10 8.13016e+09 1.01427e+09 1.20662e+09 1.78103e+08 3.70832e+08 4.37658e+07 3.00017e+09 7.3983e+09 9.2403e+07 1.79846e+09 9.64881e+07 1.79217e+08 3.02174e+08 5.69079e+08 4.07464e+09 3.08478e+09 8.33552e+09 9.80398e+09 4.36841e+08 2.06962e+08 9.69259e+08 1.38351e+09 1.03501e+09 3.366e+08 8.56995e+07 4.11253e+09 4.45191e+08 4.2216e+09 3.34749e+09 3.68611e+09 5.61263e+09 7.31411e+09 6.11787e+09 3.463e+07 1.96516e+09 3.68149e+08 1.37674e+09 3.90857e+09 3.63587e+09 7.1036e+08 5.48774e+07
internal_count=284299 167669 116630 61433 106236 32609 84021 42753 42563 41268 18870 60402 60195 45834 5637 26972 42562 41070 26891 21820 12618 15672 6252 30190 9133 5387 24014 207 198 11754 16692 30005 21696 22374 17839 11946 8808 18713 19340 8986 191 7231 10162 10199 23609 17999 5973 20188 9132 11866 4207 21204 10554 14122 17461 5964 14419 4022
cat_boundaries=0 4 8 12 16 20 24 28 32 36 40 44
cat_threshold=134481768 1098907936 76224512 1074004022 147064424 1635778912 68900864 1346502707 2956468228 338741893 1650458693 671091208 2150178820 77646337 536871424 536873488 3289907332 405275796 2690909529 151521792 4095746052 405849736 574619961 688390664 3490193429 575105 538968336 672677956 339239044 3671204 2684617049 554453760 138674786 3775136034 1074944512 1346773011 134349346 25428322 77222400 1413947541 142886474 3246653728 77285376 1413611555
shrinkage=0.1


Tree=4
num_leaves=59
num_cat=12
split_feature=8 8 8 72 8 8 8 108 31 76 83 57 8 76 12 200 108 8 40 8 8 226 226 8 18 216 8 0 12 40 0 111 129 0 216 224 216 0 144 237 6 0 0 108 231 0 0 108 196 0 0 0 40 224 146 204 0 229
split_gain=17213.6 4477.45 3335.34 1200.37 708.038 613.378 480.206 320.334 217.581 217.572 184.222 155.741 128.16 124.104 91.5505 91.5173 77.4656 70.4923 68.7189 67.3214 66.4107 58.88 56.0837 49.761 46.5746 36.424 34.1949 32.9789 32.5109 30.8156 29.8894 29.6731 28.9335 28.8451 28.8174 26.3706 25.4296 27.7459 24.604 23.8652 23.356 23.2355 23.0904 22.7023 21.9254 20.4494 20.2538 19.8617 19.5753 23.8903 18.9886 18.8951 18.1928 18.0242 17.6675 17.5781 17.3689 17.2286
threshold=0.0026756330954929111 0.0050895087963405711 0.0014160947471584648 0.0056648086955134909 0.0035449618607517361 0.0020618760901782132 0.00084587195573362114 0.014767133128866912 30679.589262248439 0.00528611068532226 0.0015252667944878342 -0.0014295832370407877 0.0016740511583114453 0.0033212802355954067 0.0013628990728085557 0.0035468848941249465 0.0035235889505259529 0.0023426004683913108 0.0073088203442517041 0.0063616263070317789 0.0041904281481791377 0.001878139549532515 0.0019778519072969577 0.00066197767791121274 0.37163156270980841 0.0011017207289532175 0.0011998837799219377 0 0.0026189144078417018 0.0010725239568200519 1 0.38875908993449282 0.0017884392873384061 2 0.0019137009546656325 0.0036179598386890392 0.001191068182371234 3 13.093841642228741 0.0012840154813602569 0.00082129531856949044 4 5 0.0027896561321381452 0.0015709131839685144 6 7 0.010888560345769873 0.0013512703488959617 8 9 10 0.0012580759568806893 0.0015149607042339978 0.0017758216899914565 0.00059382994393438566 11 0.00071106682298704993
decision_type=2 2 2 2 2 2 2 2 2 2 2 2 2 2 2 2 2 2 2 2 2 2 2 2 2 2 2 9 2 2 9 2 10 9 2 2 2 9 10 2 2 9 9 2 2 9 9 2 2 9 9 9 2 2 2 2 9 2
left_child=2 4 6 9 11 10 23 15 17 21 12 40 50 27 29 24 33 41 35 53 48 25 34 54 44 45 -16 -6 51 -8 -26 -20 -18 55 -21 -9 37 -22 -28 -10 -2 -7 -23 -19 -5 -3 -34 -17 49 -15 57 -14 -35 -11 -1 -13 -24 -4
right_child=1 3 5 7 13 8 14 18 39 19 -12 16 28 20 26 47 32 43 31 22 36 42 56 -25 30 -27 38 -29 -30 -31 -32 -33 46 52 -36 -37 -38 -39 -40 -41 -42 -43 -44 -45 -46 -47 -48 -49 -50 -51 -52 -53 -54 -55 -56 -57 -58 -59
leaf_value=-8.7854407706763657e-05 -0.00010883684144222064 0.00018550245387574036 -3.6195831123007983e-05 -0.00013216368985773878 5.6819502301081526e-05 2.8686253329637259e-05 -5.4908339853516684e-05 0.0004789610101544918 -9.747152987044097e-05 0.000185788651615325 -9.7730449407368159e-05 2.3441071884123763e-05 -1.5817674707522879e-05 0.00011665400467999914 -4.5657506535935402e-05 0.00040320565386339676 5.7883932040821747e-05 2.3179187906803916e-05 0.00068330019253249805 0.00026718042373852826 0.00014813742195426613 9.6007728622449922e-05 0.00016953353844502054 -6.709344641442904e-05 0.00038543719992011397 0.00020799270712476819 -3.411862531602389e-05 9.4429178858421644e-05 4.4279966110848883e-06 -0.00011527002688419393 0.00030684812394891274 0.0010033115832829493 6.3743979755445383e-05 4.1458407554553767e-05 0.00033533121730457241 0.0006542293719149191 0.00015481976673055507 0.00011235849967417187 -9.4007369075152896e-05 -1.707131225632561e-05 -5.8973074361725937e-06 1.0344967713824114e-05 0.00015554296045699459 3.8224364977771108e-05 0.00025428755418446688 0.00013140076599331668 8.6100700199948985e-05 0.0005101959199661167 0.00012179783857274229 8.2026646676295538e-05 -1.6271626374991687e-05 -3.6842299749193191e-06 6.0355446381821833e-05 0.00022820485057177434 -7.1182468495311743e-05 5.2832406169844569e-05 0.00023652561083071906 -2.1696768057816854e-05
leaf_weight=2759607675.90625 59017346.109375 134346227.02392578 1223408281.90625 1509909.326171875 325762829.90002441 841617151.83056641 4815184734.5957031 36460702.780395508 167880382.49609375 217471498.2512207 252659449.51855469 596405754.27246094 2042666654.4882812 352542912.546875 5251296442.8007812 35787287.458007812 1048075723.5019531 1788802890.4189453 19709027.285385132 253236019.38494873 373756779.88446045 130758600.92333984 58744940.604003906 3372966837.6894531 102116782.58398438 288703249.51019287 6326525927.6425781 820118431.81713867 3245957481.9370117 86088344 91992276.031982422 3397089.1946411133 605063107.34082031 740963242.74584961 82182706.678710938 11228387.223571777 544972225.47119141 515943526.42822266 69350671.80078125 47326984.939453125 35179928.21875 3851988165.2998047 129828145.33154297 2282940648.0620117 53005221.34576416 145565621.64660645 1226889382.302002 33682969.377716064 530029924.47753906 458203315.27148438 3580219032.5805664 3453137498.9179688 1630646928.6318359 185758815.22045898 825855201.40234375 308868709.82128906 113435233.59106445 2482578267.6955566
leaf_count=687 12 3043 2267 6 2735 4212 4726 3171 57 4987 77 3341 5510 4598 6813 2358 8182 8881 3047 8905 6345 1679 1353 2243 6171 7265 10936 9177 11735 2 4252 954 4934 4796 3889 1580 9619 7084 30 156 147 15883 2425 13365 1962 2500 11916 3170 7134 4789 8864 10813 12436 5218 465 2200 3539 5658
internal_value=0 0.000105714 -2.66607e-05 0.000237591 7.81138e-05 -1.43331e-06 -5.37708e-05 0.000396425 1.95475e-05 0.000202093 -1.30065e-05 5.72182e-05 -1.16709e-05 0.000111424 -4.45027e-05 0.000353608 5.91706e-05 2.19864e-05 0.000588807 0.000235832 0.000122855 0.000165032 0.000260063 -7.58122e-05 0.000325255 0.000183071 -3.96777e-05 8.37371e-05 -3.50722e-06 -5.59686e-05 0.000348192 0.000730349 7.11354e-05 4.86548e-05 0.000283878 0.000520228 0.000137809 0.000127389 -3.4768e-05 -7.97905e-05 -7.0392e-05 1.36338e-05 0.000125669 3.16147e-05 0.000243584 0.000157367 7.87167e-05 0.00045508 0.000106854 9.70839e-05 -2.14655e-05 -8.19396e-06 5.44514e-05 0.000205329 -8.40143e-05 3.3469e-05 0.000213669 -2.64832e-05
internal_weight=0 1.23014e+10 4.87681e+10 2.12892e+09 1.01724e+10 2.52612e+10 2.35069e+10 3.8889e+08 8.98056e+09 1.74003e+09 1.62806e+10 6.25111e+09 1.6028e+10 3.92133e+09 1.65484e+10 3.18094e+08 6.15691e+09 8.76535e+09 7.07952e+07 9.10829e+08 2.77545e+09 8.29202e+08 5.07599e+08 6.95843e+09 2.48624e+08 5.68615e+08 1.16472e+10 1.14588e+09 8.74176e+09 4.90127e+09 1.94109e+08 2.31061e+07 2.88003e+09 3.27688e+09 3.35419e+08 4.76891e+07 1.43467e+09 8.897e+08 6.39588e+09 2.15207e+08 9.41973e+07 4.69361e+09 2.60587e+08 4.07174e+09 5.45151e+07 2.79912e+08 1.83195e+09 6.94703e+07 1.34078e+09 8.10746e+08 7.28621e+09 5.4958e+09 2.37161e+09 4.0323e+08 3.58546e+09 9.05274e+08 1.7218e+08 3.70599e+09
internal_count=284299 170919 113380 71474 99445 87478 25902 26671 42554 44803 44924 47964 44847 51481 22507 17919 47805 42341 8752 27891 39569 16912 17686 3395 12391 12808 17779 11912 28058 4728 10423 4001 25032 22773 12794 4751 23048 13429 10966 213 159 20095 4104 22246 1968 5543 16850 5528 16521 9387 16789 16323 17232 10205 1152 5541 4892 7925
cat_boundaries=0 4 8 12 16 20 24 28 32 36 40 44 48
cat_threshold=3496485013 640642 537133377 671631876 138676072 1627390368 77273600 1078132914 3223912581 335594113 1661206796 672682376 138675274 1635782920 9657344 1417683059 138543650 1627652386 1151029248 1414930435 272195588 70828676 537134425 671615752 396618 1635782656 77290512 1409548339 3224412164 271140485 574890333 536877568 4458344 3783262496 1789440 1078132787 3761790981 70306436 1614808149 536873240 3223920645 337693312 1612710661 538446680 338190340 271090820 572784985 755501832
shrinkage=0.1


Tree=5
num_leaves=59
num_cat=16
split_feature=8 104 8 104 72 12 8 31 42 76 29 108 8 8 8 12 12 8 226 200 216 216 0 198 216 133 0 229 137 216 236 0 0 229 0 226 0 74 0 0 8 0 200 72 232 0 0 74 229 0 208 0 0 74 0 229 229 0
split_gain=13963.7 3402.07 2987.27 768.897 715.135 511.824 488.204 189.749 159.363 152.012 146.198 139.604 124.389 96.9235 93.899 84.0032 80.9406 66.7885 55.9451 53.7002 51.3212 44.2095 41.6347 40.778 39.5646 33.3426 31.5381 34.4476 31.5331 30.8031 28.1654 25.8834 25.3978 27.8439 23.4926 22.9144 22.7713 22.1328 22.11 21.0373 21.0271 20.8893 18.8508 18.6826 18.4331 20.353 18.1003 18.036 18.0148 19.4729 17.9415 20.9372 17.4744 17.4224 17.2895 18.0071 17.264 17.2343
threshold=0.0027969763016991766 0.0049694853685356309 0.0015246365728097384 0.0033313963387831846 0.0068555266312140878 0.0012520048255277116 0.0021232997261309088 30679.589262248439 3.3755503622316821e-05 0.0067875627783171013 21350.847088784001 0.016191771938101281 0.0046167742343838462 0.003311794970090346 0.0012476782467578584 0.00082155520199718251 0.0023596298717040846 0.0024579900599150536 0.0019491088680300224 0.0023896272202739892 0.0015436986003187862 0.001654526067565292 0 0.0048448988086395159 0.0033995937560144843 0.00097107863985002052 1 0.0007256668177433313 0.00116759684169665 0.0013046901175186791 0.00053718630806542944 2 3 0.00071106682298704993 4 0.0019778519072969577 5 2.7458798691338825e-05 6 7 0.0076221650020549484 8 0.0046828484751615723 0.0011089098446800609 0.00047611120680812752 9 10 0.00012884274193425483 0.00063900041277520369 11 0.00081574255983762553 12 13 0.0012318973361068427 14 0.0010400679893791678 0.00077241798862814914 15
decision_type=2 2 2 2 2 2 2 2 10 2 2 2 2 2 2 2 2 2 2 2 2 2 9 2 2 10 9 2 10 2 2 9 9 2 9 2 9 2 9 9 2 9 2 2 2 9 9 2 2 9 2 9 9 2 9 2 2 9
left_child=2 3 5 10 9 15 7 16 -8 20 13 21 25 32 34 -1 43 38 29 31 22 39 -3 28 46 -5 -18 -28 -15 36 -12 -11 -2 -34 -7 44 -14 -16 -10 -6 -33 56 -21 -4 45 -27 -13 -9 -40 -50 51 -35 -29 -26 -24 -56 -19 -39
right_child=1 4 6 12 11 14 8 47 17 19 30 24 18 23 37 -17 26 41 -20 42 -22 -23 54 -25 53 35 27 52 -30 -31 -32 40 33 50 -36 -37 -38 57 48 -41 -42 -43 -44 -45 -46 -47 -48 -49 49 -51 -52 -53 -54 -55 55 -57 -58 -59
leaf_value=-7.6166718547562775e-05 6.6986361711744919e-05 0.00020934383862543688 -2.2072787041962877e-05 8.0535581133223642e-05 0.00036978108095290602 -4.6937665088767928e-05 -9.2673438650601233e-05 -4.9586934921750514e-05 7.3252262757109185e-06 0.0001739206147809676 -7.3576151654852672e-05 0.00059497888715897304 0.00015682995667344466 5.7826390267264196e-05 -9.4415926774864571e-05 -5.6720511541279881e-05 1.6802904905007659e-05 -4.113636128074392e-06 0.00010060456232640323 0.00030284434900465252 0.00023058710090898224 0.00043815423384732069 0.00010618339685839961 3.2687884803717084e-05 0.00070635009798167639 7.8101067843495541e-05 -1.1321551809371883e-05 1.5291794483976366e-05 8.6752222269321098e-05 0.0001727358863598761 6.3398490510850137e-05 0.0002228517039156879 1.5910603791457928e-05 5.7791303198320667e-05 -3.6636003199434823e-05 6.3619476480410454e-05 0.00012227498124710095 -1.3759943038443798e-05 5.5547495062300653e-06 0.00025376652104182779 0.00028601204230237464 3.8667486449297145e-05 0.00040547428617414413 -1.0555245422744752e-05 0.00013760728141266442 0.0001153636827145207 0.00044654920796601482 -9.8547913815026175e-05 4.1225818267696127e-05 2.016880807708151e-05 6.7409617118174207e-05 3.7588139509047692e-05 1.216069696868338e-07 0.0011069655948129453 0.00010717076117981687 0.00017877071650898338 2.8095862153550688e-05 -2.8685823240951209e-05
leaf_weight=3591883359.7695312 931924731.97021484 212387445.96368408 2146755804.8078613 488781086.27783203 40265054.801635742 4897055905.2851562 119749914.09765625 113532331.37402344 1851916343.2935791 45853124.764160156 95005683.8359375 19665389.588256836 375605167.675354 466750709.47363281 49178484.640625 5822019968.6523438 1062230062.2441406 201437608.93994141 265546314.16992188 134555614.46520996 260553062.34863281 71954529.995269775 66418784.9375 186757130.69433594 9956967.2039031982 181666784.37841797 2402606668.1015625 990688132.08398438 1957212380.7857666 430664252.28118896 17829010.090820312 98122960.629638672 247415170.04101562 943417634.74682617 4039927092.6992188 94168782.546875 387412811.86621094 863525500.109375 614069198.81970215 25548379.579101562 113891171.59448242 2571792813.9719238 20643239.29309082 4094660155.9179688 274816823.78808594 759024340.8536377 14112465.678649902 223067947.3671875 554730244.78808594 2108297389.1445312 531253972.30273438 1124223373.6318359 3251206183.5214844 1218466.117980957 43928334.888305664 175288358.67834473 956898217.95751953 7428350665.9179688
leaf_count=1111 8142 6304 4906 5605 2704 5595 41 168 7708 1208 139 2723 7700 4167 10 4471 4410 804 3616 6648 8824 6370 1103 1328 1893 2057 7050 4004 21298 9690 148 3173 1378 7437 5706 932 6481 2011 2588 1156 5106 15904 1493 11277 4469 10951 1413 23 3292 9956 4518 7485 10915 442 811 4395 5337 13705
internal_value=0 0.000101382 -2.25509e-05 8.07716e-05 0.000249903 -4.53802e-05 3.64283e-06 -7.84232e-06 2.19149e-05 0.000221206 6.09034e-05 0.000433907 0.000120425 6.28962e-05 -3.51589e-05 -6.41402e-05 -6.05191e-06 2.34638e-05 0.000142119 0.000270019 0.000194627 0.000383977 0.000175813 7.77133e-05 0.000586928 0.000102824 8.03465e-07 -1.7543e-06 8.11824e-05 0.000151354 -5.19327e-05 0.000242047 5.26577e-05 4.79663e-05 -4.22808e-05 0.000111142 0.000139285 -2.75281e-05 1.60592e-05 0.000324745 0.000256781 3.36452e-05 0.000316495 -1.45167e-05 0.000114824 0.000108168 0.000532965 -8.20338e-05 2.09948e-05 2.45552e-05 5.1018e-05 4.68064e-05 3.66458e-06 0.00075003 0.000150881 0.000164423 2.24945e-05 -2.71314e-05
internal_weight=0 1.11138e+10 4.99556e+10 9.75948e+09 1.35436e+09 2.66919e+10 2.32636e+10 1.42847e+10 8.97889e+09 1.17164e+09 6.50179e+09 1.82721e+08 3.25769e+09 6.38896e+09 1.7278e+10 9.4139e+09 1.39481e+10 8.85914e+09 1.45923e+09 4.13066e+08 7.58576e+08 1.37768e+08 4.98023e+08 2.61072e+09 4.49533e+07 1.79846e+09 7.70673e+09 6.6445e+09 2.42396e+09 1.19368e+09 1.12835e+08 2.57867e+08 3.77823e+09 2.84631e+09 8.93698e+09 1.30968e+09 7.63018e+08 8.34105e+09 5.12901e+09 6.58134e+07 2.12014e+08 3.73013e+09 1.55199e+08 6.24142e+09 1.21551e+09 9.40691e+08 3.37779e+07 3.366e+08 3.2771e+09 2.66303e+09 2.59889e+09 2.06764e+09 4.24189e+09 1.11754e+07 2.85635e+08 2.19217e+08 1.15834e+09 8.29188e+09
internal_count=284299 163307 120992 107541 55766 32609 88383 42753 45630 39065 56040 16701 51501 55753 27027 5582 42562 45589 27487 17628 21437 10230 12613 26793 6471 24014 26379 21969 25465 23871 287 9487 28960 20818 11301 18409 14181 15726 23544 3860 8279 22045 8141 16183 17477 13008 4136 191 15836 13248 19440 14922 14919 2335 6309 5206 6141 15716
cat_boundaries=0 4 8 12 16 20 24 28 32 36 40 44 48 52 56 60 64
cat_threshold=4460362 1635782656 9656832 1346379895 134350386 1099170162 77205504 1346846727 3558408193 472454160 54526292 542976 134482538 1635778850 68900864 1079181363 2148147204 67685889 540017217 671094808 138675786 3774873896 9665024 1409613843 3760791680 338217472 574882141 671091464 2286159690 1082134816 110319616 1078206563 3492348037 268485253 572588121 671632136 4095737861 471910017 40108369 151523336 143000424 1207959648 67307520 1312983 138414626 1098908002 92946944 1347878999 79856912 2349077584 3246400000 352608452 1086425473 2819690504 3238282768 84943088 2218287236 272138373 537133401 151522056 1078069522 1627656272 1133383680 289497188
shrinkage=0.1


Tree=6
num_leaves=59
num_cat=11
split_feature=8 8 8 108 8 8 108 72 44 57 72 76 25 76 12 72 108 200 8 12 200 229 0 196 198 141 0 0 0 153 0 224 224 0 229 224 209 40 76 0 0 208 0 229 51 200 0 8 2 226 12 133 134 208 67 227 0 8
split_gain=11332 3117.06 2164.84 822.293 514.148 375.923 358.123 212.779 160.838 142.297 88.7399 88.0365 85.5822 70.1292 69.5754 67.587 67.2083 62.3978 60.6975 53.0824 46.4694 44.6146 43.424 37.2925 33.7506 32.7662 33.6641 31.5762 31.4778 29.2559 27.9117 26.727 25.1094 24.3104 24.0054 23.6047 22.8618 22.7916 22.1497 21.8976 21.4681 22.4939 20.9529 24.4662 20.3339 20.274 19.1632 19.1442 19.1075 18.9166 17.7031 17.2605 16.5096 16.2084 16.0264 15.7724 15.5747 14.991
threshold=0.0026098081827532504 0.0050412335502718611 0.0014160947471584648 0.0098274415248913553 0.0035449618607517361 0.0020012073339996609 0.00099147880474280197 0.0079081429441323816 0.0036594919374761709 -0.0014295832370407877 0.0017780807607361711 0.0035850514684594667 -0.00058295810595154751 0.002627849055367035 0.0023136417794080277 0.00041832420347623036 0.018412269590126543 0.0035468848941249465 0.0010936579701453463 0.003181576466627849 0.0032991237514900019 0.0010147621505893769 0 0.00095001490744183912 0.0048448988086395159 0.002539101406000555 1 2 3 0.0020929049827326227 4 0.0020287701091082386 0.0014532457134775226 5 0.00095919790328480314 0.0036179598386890392 0.0014037633645420978 0.0104595833311551 0.0020814354473111863 6 7 0.00055372756877910016 8 0.00071835741982795309 0.0014828614657744767 0.0023509140913950031 9 0.0069663322500183259 0.99717185929673424 0.0019778519072969577 0.0018529523720379377 0.00069862441159784805 11.500000000000002 0.00084296447499916942 0.00070611256973496001 0.0048105493187904367 10 0.00084587195573362114
decision_type=2 2 2 2 2 2 2 2 2 2 2 2 2 2 2 2 2 2 2 2 2 2 9 2 2 10 9 9 9 2 9 2 2 9 2 2 2 2 2 9 9 2 9 2 2 2 9 2 2 2 2 10 10 2 2 2 9 2
left_child=2 4 6 8 9 10 15 20 22 48 14 24 36 38 46 44 35 25 -8 40 30 27 31 33 34 -10 -27 -13 -23 53 -5 -3 -24 -15 39 -9 -7 -18 -11 -6 -14 -42 -16 -44 52 56 -4 -28 -2 -49 -20 -21 -1 -25 57 -32 -30 -17
right_child=1 3 5 7 11 12 18 16 17 13 -12 21 19 23 42 54 37 -19 50 51 -22 28 32 29 -26 26 47 -29 45 -31 55 -33 -34 -35 -36 -37 -38 -39 -40 -41 41 -43 43 -45 -46 -47 -48 49 -50 -51 -52 -53 -54 -55 -56 -57 -58 -59
leaf_value=-5.5848207135725392e-05 -0.00010244330933330449 7.2266036538995939e-05 -2.2720874733538508e-05 0.00029495572125119371 8.2181090123200194e-05 -8.1856626172124552e-05 -4.335700821724844e-05 0.00037266320787036721 0.00014913872953530672 1.6895528123896815e-05 -8.5246520381074471e-05 0.00010278660808017088 2.0121472152494218e-05 5.7416760572378895e-05 1.1307827907203972e-05 -5.7322415903903037e-05 0.00055527868653237813 0.00027825203496353949 -3.3065334355529594e-05 1.7126595033963107e-05 0.00036261906474566749 0.0001407454776181737 0.00012970097773404337 4.983154832600164e-05 3.5615982280934499e-05 0.00014630289072230132 0.00019193908909548538 6.3289973162331654e-05 0.0001107407387698011 8.1398463396400336e-05 -2.4443923466481991e-05 0.00014133826290831377 0.00016789042286693726 3.3709916922130134e-05 8.7660183680933389e-05 0.00050335400307305897 -1.6207273315925033e-05 0.00081554391509905074 3.8694940214279702e-05 4.0856157900254168e-05 6.9247224536578466e-07 1.6375442064735053e-05 -1.3697645447025914e-05 -3.5006314654149903e-07 -0.00010076788012523434 0.00012995569609121368 -1.2875799004497105e-05 0.00025485864308344653 -1.8078374582888645e-05 0.00019167770908850033 -2.3719140241138358e-05 3.1071003950360033e-05 -7.391019119088447e-05 7.1631468258146822e-05 -9.6163482497379582e-05 0.00022918619832861941 8.2258509459907133e-05 -4.6173274042691175e-05
leaf_weight=646624695.7109375 65536601.40625 150059896.16796875 3365267021.6203613 114230790.53759766 247139291.45166016 105367026.41796875 5607872867.1640625 53605167.000854492 186362291.63708496 587699746.25830078 161538545.5234375 441111803.03009033 1382194110.118042 751090633.44189453 867062134.11962891 3101201162.2441406 20438473.621154785 80466981.476318359 6822062339.6289062 1592552135.3212891 56910435.048370361 337135252.35400391 370278500.18713379 1182740786.9169922 214740007.50683594 108160470.52392578 306470272.78662109 374061211.16015625 411220413.82226562 631769749.69360352 2514021.1513671875 89392297.215820312 321790925.50262451 1019963138.9702148 932905403.65930176 18621197.194320679 106825625.66210938 4027880.8193359375 2252700613.7521973 266491413.48583984 2837062805.5859375 1349610953.5566406 2195103161.1054688 3668095909.5375977 231254771.12109375 255268645.43554688 4793044195.9082031 128235537.33404541 45473697.28515625 75166286.519775391 2883172825.1542969 2005559766.2050781 2328092952.1640625 479263140.43676758 87449670.75 99096281.367736816 360119015.71386719 1973443792.609375
leaf_count=377 15 2001 7234 6076 2929 62 5874 4430 4430 3209 48 6414 6523 6428 3337 1765 3156 3897 10133 7763 4264 6159 7442 9290 1720 2598 8859 4173 6208 6458 28 1927 8053 7022 11312 2389 337 1076 15301 2359 10704 5993 5947 11969 34 4449 12010 5451 158 2418 5404 11273 530 4536 2 4045 4487 1768
internal_value=0 8.24706e-05 -2.26202e-05 0.000191422 6.05345e-05 -1.73495e-06 -4.41652e-05 0.00032742 0.00016376 4.44345e-05 -1.15278e-05 8.995e-05 1.39789e-05 4.62402e-05 -1.07279e-05 -6.08006e-05 0.000454881 0.000194292 -3.50746e-05 1.54322e-05 0.000282234 0.000103171 0.000134758 5.46644e-05 7.26098e-05 0.000185893 0.000196976 8.46627e-05 0.000114234 6.30809e-05 0.00026104 9.80521e-05 0.000147458 4.37638e-05 7.81015e-05 0.000406358 -4.88063e-05 0.000598126 3.41845e-05 6.07401e-05 9.31551e-06 5.74802e-06 -3.20154e-06 -5.34722e-06 -7.22045e-05 0.000105527 -1.69368e-05 0.000207725 -6.78845e-05 0.00023151 -3.02888e-05 2.48991e-05 -6.9984e-05 5.61179e-05 -5.37182e-05 0.000222911 9.74431e-05 -5.29867e-05
internal_weight=0 1.30423e+10 4.81105e+10 2.18583e+09 1.08564e+10 2.44293e+10 2.36812e+10 3.69444e+08 1.81638e+09 7.01624e+09 1.50501e+10 3.84019e+09 9.37917e+09 6.90523e+09 1.48886e+10 8.36807e+09 9.66927e+07 8.84862e+08 1.53131e+10 9.16698e+09 2.72752e+08 2.17892e+09 9.31522e+08 4.06483e+09 1.66128e+09 8.04395e+08 6.18033e+08 8.15173e+08 1.36374e+09 2.29377e+09 2.15841e+08 2.39452e+08 6.92069e+08 1.77105e+09 1.44654e+09 7.22264e+07 2.12193e+08 2.44664e+07 2.8404e+09 5.13631e+08 5.56887e+09 4.18667e+09 6.73026e+09 5.8632e+09 3.20597e+09 1.02661e+09 8.15831e+09 5.09872e+08 1.1101e+08 2.03402e+08 9.70524e+09 3.59811e+09 2.97472e+09 1.662e+09 5.16209e+09 1.0161e+08 7.71339e+08 5.07464e+09
internal_count=284254 175167 109087 72540 102627 83200 25887 25464 47076 52417 40545 50210 42655 52244 40497 4476 11051 27653 21411 42256 14413 31890 19423 33734 18320 23756 19326 10587 21303 20284 10149 3928 15495 13450 16600 6819 399 4232 18510 5288 23220 16697 21253 17916 941 15144 19244 16728 173 7869 15537 19036 907 13826 3535 4073 10695 3533
cat_boundaries=0 4 8 12 16 20 24 28 32 36 40 44
cat_threshold=69754884 70829733 541327705 671615496 2419613824 2720773 576979289 688390920 8652648 1635782944 9656832 1078329395 138674794 3246391586 68245504 1347616979 138677578 1635778914 68372480 1086718099 134480650 1635778848 1083914752 1146224819 134481226 3783262496 76749312 1409425459 134383106 3783524728 1142050816 356917377 134351650 262514 93999616 1346846727 3223396357 347130496 1616904965 538446104 1082363137 538185800 1099572736 75790372
shrinkage=0.1


Tree=7
num_leaves=59
num_cat=16
split_feature=104 104 108 104 108 104 104 57 104 82 57 12 72 72 50 0 12 208 229 12 216 44 0 82 229 0 208 0 212 198 108 0 226 236 236 0 224 0 102 0 0 0 0 229 129 0 0 208 50 198 83 229 236 0 35 10 0 0
split_gain=9157.56 2476.79 1779.05 730.759 373.503 350.943 218.837 205.602 187.751 106.104 100.499 75.5213 69.8064 64.8718 56.5389 52.4617 47.064 46.7718 44.6511 43.9202 34.4593 33.0207 31.6706 29.5307 29.1068 31 28.8225 31.0383 26.0906 24.9214 23.1183 22.7214 22.0128 21.7849 21.2813 21.5269 21.0857 20.5829 20.0229 19.2152 18.9879 18.8095 18.5306 22.0177 18.3156 17.4832 17.3826 19.8077 17.3512 16.4988 16.3624 16.0575 15.6899 15.2338 15.1585 16.1423 15.0208 14.9704
threshold=0.0022621241986535679 0.0041683318113421514 0.0017516627651576668 0.0069679656621156579 0.0010527845545863041 0.0031248694607479361 0.0017531625686828228 -0.0014295832370407877 0.009946059236825882 0.14830535650253299 -0.0014295832370407877 0.0040795191084765587 0.00041832420347623036 0.00093821315569613591 0.19575637578964236 0 0.0056663136397468892 0.001087156134881892 0.00064473034581169497 0.0032498051803287742 0.0018184480531589896 0.0030712581223202294 1 0.069151874631643309 0.00064473034581169497 2 0.00083433295506780958 3 0.00051922170008761336 0.0049296616589891507 0.027104239581815379 4 0.0019778519072969577 0.000594564131461084 0.0003216345794498921 5 0.0013294250216592943 6 0.00088576857711282161 7 8 9 10 0.00073892838554456841 0.0034554562298581008 11 12 0.00055372756877910016 0.17613556236028674 0.0013757134350558442 0.0014638712746091189 0.0034395762486383323 0.00057426869170740258 13 0.00051850578565063336 3.6123777225753849e-05 14 15
decision_type=2 2 2 2 2 2 2 2 2 2 2 2 2 2 2 9 2 2 2 2 2 2 9 2 2 9 2 9 2 2 2 9 2 2 2 9 2 9 2 9 9 9 9 2 10 9 9 2 2 2 2 2 2 9 10 2 9 9
left_child=2 5 4 9 12 10 15 -8 17 21 38 28 50 34 41 18 26 31 -4 46 22 -3 44 53 39 -26 27 -7 -12 33 -16 -5 51 57 35 -6 45 -25 -2 -17 -30 -10 -21 -44 -11 -23 -9 -48 52 -36 -1 -19 -20 -13 55 -14 -38 -18
right_child=1 3 6 8 13 16 7 19 14 20 11 23 54 -15 30 24 29 32 48 42 -22 36 -24 37 25 -27 -28 -29 40 -31 -32 -33 -34 -35 49 -37 56 -39 -40 -41 -42 -43 43 -45 -46 -47 47 -49 -50 -51 -52 -53 -54 -55 -56 -57 -58 -59
leaf_value=-6.2961836761504306e-05 -7.8641143821761149e-05 0.00010118384068586895 -3.1590735221443975e-05 0.00025340808277835399 -4.2123032822269238e-05 8.3577677574138361e-05 -7.9567440722869514e-05 1.987776482822313e-05 0.00025898315893490556 0.00015771553991771557 2.0051767184623509e-05 2.2915309491300663e-05 -5.253240012737951e-05 -1.9713127710351638e-05 0.00049195181404430171 3.2475869143424586e-06 6.6574811664029177e-05 0.00031528197387093717 -1.1830799175192345e-05 3.8770177343676409e-05 0.00020748674812418779 0.00013905249471187568 0.00013772317923703401 7.4510020827287611e-05 2.4552930499538445e-05 1.3134750749207469e-07 9.2583418125464432e-05 5.167465359363701e-05 5.7832554263287622e-05 5.644628361200768e-05 0.00076127761083548732 0.00018218474038605154 0.00024405362427825538 0.00011529274750144499 -4.2425894877510272e-06 -3.1538187433634452e-05 0.0001154719698271647 5.4231671914839485e-05 1.9183106497631266e-05 -1.6069576319775409e-05 3.4785251147938309e-05 0.00038681675103252816 5.2787029866110957e-06 2.619540261313275e-05 0.00020836307483047833 9.1474534962123006e-05 1.6672779280760014e-06 1.6813980263063148e-05 -7.7136837750505985e-05 -2.8157493488552507e-05 -9.0098020948855515e-05 0.00049408677950735778 3.4683251704115525e-06 4.8295502849797145e-05 -8.547489981357985e-05 -4.2142887393618796e-05 0.00016194902762790823 9.8928124468775644e-05
leaf_weight=3039483285.5898438 80491798.337890625 436295419.49719238 1165063896.9121094 88778482.573120117 3034380453.1777344 493126049.35205078 232198109.80664062 1343742671.7781982 14614434.772827148 142212293.17724609 1050114011.0019531 338396855.66064453 2507985233.8515625 5692558397.1425781 25870879.391845703 736343715.44140625 210956531.78955078 79291353.215637207 3899199145.5551758 733473971.51269531 189439996.21166992 163826313.36132812 331897210.83789062 715190208.68017578 592065330.08154297 4256878781.1171875 478253267.75 799172552.46826172 435481091.515625 140453819.26416016 3635046.467956543 90403116.764526367 52227272.909423828 566140990.49707031 323927624.00390625 5238248694.7949219 89888427.02734375 1667807053.8167725 28272850.267578125 1712615914.2753906 1995456208.9204102 54200979.225234985 678501874.11425781 1948405022.0466309 143400226.41363525 146124889.19433594 2604731395.1865234 1291431558.3759766 37897269.9453125 2636176462.3859863 239729989.99609375 5362295.9365234375 809488628.515625 785337161.80664062 100564617.82226562 3704237877.9238281 307153277.87872314 444114451.76300049
leaf_count=945 42 7670 2122 4515 3296 6320 111 6489 1052 3828 6236 2261 1355 11727 3765 2523 2553 5398 10286 4774 7056 3823 7925 7599 2687 13665 6513 8038 3632 1552 1002 3378 2816 9578 699 7330 1866 14840 147 4240 13541 5296 3038 10954 5097 2527 9990 5936 26 4004 42 599 2705 6603 11 3304 8181 6746
internal_value=0 7.5802e-05 -1.98932e-05 0.000168039 -3.73442e-05 5.44793e-05 1.10084e-06 1.32862e-05 0.000288639 0.000142414 4.21735e-05 4.36581e-05 -5.31093e-05 -2.84097e-05 0.000409324 -7.04681e-06 8.236e-05 0.000251096 -1.40488e-05 1.57931e-05 0.000170177 0.000122818 0.000158732 5.4016e-05 -1.37486e-06 3.11327e-06 7.16102e-05 6.38485e-05 3.32239e-05 9.63378e-05 0.000525132 0.000217474 0.000295109 0.000100926 -3.2817e-05 -3.54207e-05 0.000136168 6.03177e-05 -5.32121e-05 -1.02614e-05 3.8914e-05 0.000359669 2.47168e-05 2.07928e-05 0.000183145 0.000116622 1.00703e-05 6.68784e-06 -9.74308e-06 -2.55405e-05 -6.49457e-05 0.000326608 -9.20067e-06 4.06526e-05 -4.69608e-05 -4.63373e-05 0.000151427 8.85092e-05
internal_weight=0 1.25934e+10 4.85593e+10 2.36462e+09 2.65173e+10 1.02288e+10 2.2042e+10 8.83248e+09 4.14384e+08 1.95024e+09 7.09655e+09 6.98778e+09 9.592e+09 1.69253e+10 9.83213e+07 1.32096e+10 3.13222e+09 3.16063e+08 5.91165e+09 8.60029e+09 8.0695e+08 1.14329e+09 6.1751e+08 3.50673e+09 7.2979e+09 4.84894e+09 1.77055e+09 1.2923e+09 3.48105e+09 1.36167e+09 2.95059e+07 1.79182e+08 1.36881e+08 1.22121e+09 1.12327e+10 8.27263e+09 7.06993e+08 2.383e+09 1.08765e+08 2.44896e+09 2.43094e+09 6.88154e+07 3.36038e+09 2.62691e+09 2.85613e+08 3.09951e+08 5.23991e+09 3.89616e+09 4.74659e+09 2.9601e+09 3.27921e+09 8.46536e+07 4.70869e+09 1.12373e+09 6.31279e+09 6.21222e+09 3.97042e+08 6.55071e+08
internal_count=284254 171995 112259 75794 32713 96201 79546 41292 27821 47973 54901 54712 5657 27056 11115 38254 41300 16706 15139 41181 23906 24067 16850 31303 23115 16352 20871 14358 23409 20429 4767 7893 8813 18877 15329 10626 16397 22439 189 6763 17173 6348 18766 13992 8925 6350 22415 15926 13017 4703 987 5997 12991 8864 4670 4659 10047 9299
cat_boundaries=0 4 8 12 16 20 24 28 32 36 40 44 48 52 56 60 64
cat_threshold=3223920644 337691269 1614815557 536873728 138676842 3774873890 1142115328 1074004183 4327474 1627390050 84431360 1347903701 134481226 3774877744 9665024 340140035 4458344 1610613056 68900864 1360142487 2148016132 68207105 538968580 536877072 263752 1166016864 1149966336 1145512051 142607210 1627652450 77221888 1346715655 146836064 1636041056 17318912 1343692901 339232789 472712192 1126694937 201851176 138674786 1610613026 85155328 1346773127 134611784 1636045104 76753408 1342185491 165378 2844004728 1150963712 340131969 1082368212 338281988 603996192 604010816 1354244229 271123588 537133329 605817608 3422748801 470876355 1174675780 545156
shrinkage=0.1


Tree=8
num_leaves=59
num_cat=14
split_feature=8 8 8 76 8 108 8 40 18 80 31 115 44 8 104 40 12 198 200 129 8 44 0 141 229 0 0 0 196 153 229 0 129 216 0 0 0 74 0 229 8 0 0 113 0 232 220 200 208 0 0 229 12 200 8 229 224 153
split_gain=7480.58 1788.02 1760.57 429.109 346.083 320.895 266.035 121.586 89.1992 83.6067 81.6656 80.8164 65.3816 57.6874 56.9996 56.9277 52.9452 48.6614 41.4529 35.0776 29.8444 29.4728 28.8509 28.6354 25.976 25.5118 20.9069 20.6582 20.2352 26.6955 19.395 19.1165 18.9399 18.878 18.7245 18.4624 17.8054 17.7923 17.4627 16.6171 16.2695 16.17 15.8453 15.4269 15.3957 14.9249 14.5855 14.5801 14.3472 14.3352 14.2934 17.7118 13.8654 13.8187 13.633 13.6029 13.4377 13.3151
threshold=0.0028529692767038889 0.0056760801354600971 0.0015591594367588256 0.009119184976759875 0.0039773403262348085 0.0010527845545863041 0.0022185070872606052 0.0032672144898791044 0.82602375745773327 0.0010711515040989783 30679.589262248439 0.0015105559723451736 0.0026242292504104086 0.0012699174151810317 0.00054959587294252691 0.001418913993335529 0.0025769140824603693 0.0048448988086395159 0.0035468848941249465 0.0046215811744332322 0.0032057933479160429 0.0014972464434507237 0 0.0019811836536973719 0.0036179015878587966 1 2 3 0.00070696896782632905 0.0020929049827326227 0.0009782251436263325 4 0.0013753794482909145 0.0018927216641008891 5 6 7 2.7458798691338825e-05 8 0.00066691901884041737 0.0010265476400947787 9 10 0.00019258912200890123 11 0.00048869161400944005 0.00071742806890616841 0.0019514153149518805 0.00084296447499916942 12 13 0.00064473034581169497 0.0047510105001284638 0.0023896272202739892 0.0079966466460259737 0.00078573491191491495 0.0018176390387787498 0.0013702470530745057
decision_type=2 2 2 2 2 2 2 2 2 2 2 2 2 2 2 2 2 2 2 10 2 2 9 10 2 9 9 9 2 2 2 9 10 2 9 9 9 2 9 2 2 9 9 2 9 2 2 2 2 9 9 2 2 2 2 2 2 2
left_child=2 4 5 7 9 14 10 17 19 15 16 21 25 40 -1 22 34 30 27 -5 -17 49 -2 -14 31 56 53 54 -23 48 -3 -10 -22 44 46 -26 -21 -15 55 -27 -7 -34 -32 -16 -19 -28 -4 -43 -30 -8 -39 -52 -24 -25 -9 -18 -6 -53
right_child=1 3 6 8 12 13 11 18 24 -11 -12 -13 23 37 43 20 38 33 -20 36 32 28 52 26 35 39 45 -29 29 -31 42 -33 41 -35 -36 -37 -38 50 -40 -41 -42 47 -44 -45 -46 -47 -48 -49 -50 -51 51 57 -54 -55 -56 -57 -58 -59
leaf_value=-5.7838380983741439e-05 1.5479140817229956e-05 0.00010747028355640389 -1.9837974296957636e-05 0.0002091331034163108 3.1735862874256354e-05 -3.6570286033855405e-05 2.5696910756575397e-05 0.00018439374111274478 0.00047654118004540765 -7.3037061853558976e-05 -5.6246887032075311e-05 -7.3639061744775556e-05 7.672216513728979e-05 -8.292273206141686e-05 -4.1138644318283858e-05 4.2313708639316755e-05 -1.0655134058895106e-05 5.3686794871046873e-05 0.00025887771771596779 0.00024430404127787466 2.0851024579819602e-05 1.5022216891777416e-05 3.5103709568068865e-05 6.5290822573774455e-05 0.0007724136856143768 2.1778347128943907e-05 0.00010708215637756532 0.00016163906906200548 2.1933763355002898e-05 4.6324691891247128e-05 0.0001855393758388561 0.00029649311820801553 7.5040485538581928e-05 0.00014654582652617824 -3.5796067277846417e-06 0.00049451515507629431 0.00033115617381543111 -5.4976045484227682e-06 9.1417956177866877e-06 8.2317873306131069e-05 -2.7761995236448342e-05 5.1730358081829367e-05 0.0001439500039360767 -7.620712726501104e-05 0.00010617480554504343 0.00013520799263417116 -6.7230622876778467e-06 7.203719779050842e-05 4.3659252198409424e-05 9.4037846945661164e-06 -2.7298015658637332e-05 -2.1219835002715641e-05 5.5497825424157926e-05 0.00010964442640520084 0.00023834403443051801 4.2584086128017227e-06 7.6342510191920512e-05 -1.1166281509947807e-05
leaf_weight=3578629137.6210938 596508921.35742188 88434828.755981445 1678153912.0166016 49224908.743652344 222195080.97949219 3070027458.3105469 696291943.05273438 125266052.65814209 13354805.40435791 58356363.962890625 286030878.45214844 92100796.654296875 403573983.50793457 43744306.21875 5864651502.3125 1357338665.4694824 1010650272.2290039 93490139.994140625 79263546.150604248 31729560.7578125 114673184.23632812 1284885698.4237061 1097224297.796875 172662016.94335938 3496262.8667602539 48225113.086914062 815485383.0145874 254954052.95147705 2205306108.8662109 755307315.44946289 145191811.55834961 10560634.098022461 721442469.47338867 63603748.71875 4984599955.0654297 7561691.5551757812 92186283.435897827 719864124.20703125 3652496959.4975586 757825556.19335938 6615966276.9707031 1291370955.0206299 248236967.18688965 128184527.40625 138925699.25146484 245460769.33782959 1714193863.4921875 486878872.75244141 352563371.56982422 2405750350.8330078 2438472225.9736328 3165839290.3586426 478858844.13305664 118423108.68505859 74813932.913330078 1548975773.6640625 97024513.311035156 2256207664.1933594
leaf_count=1077 3769 2033 3881 2497 2090 3116 3909 4437 2034 30 212 103 5891 5 4520 10728 3048 1340 4649 2072 887 6813 8260 2321 978 470 15060 8628 12358 5485 4826 998 8497 1868 14957 1303 7834 1804 14611 10819 9354 12550 6819 12 3048 5407 4833 5582 2445 11159 4123 5863 4643 2265 3818 5754 1290 5071
internal_value=0 7.61955e-05 -1.61867e-05 0.000176569 5.93962e-05 -3.30139e-05 4.51129e-06 0.000155411 0.000309972 4.60936e-05 -3.32967e-06 1.94795e-05 8.80373e-05 -2.52574e-05 -4.78521e-05 4.72251e-05 -2.29218e-06 0.000130183 0.00019214 0.000280548 5.43442e-05 2.05933e-05 3.42106e-05 0.000100098 0.000455639 6.92203e-05 0.000107076 0.000180515 2.56748e-05 2.9806e-05 0.000149786 0.000397036 6.05902e-05 9.82721e-05 -7.4799e-06 0.000582382 0.000308917 -1.93089e-05 4.70337e-06 7.86959e-05 -3.05538e-05 6.24132e-05 0.000159298 -4.18887e-05 8.50613e-05 0.000113589 -1.32109e-05 5.72903e-05 2.49283e-05 1.3061e-05 -1.89846e-05 -2.02197e-05 4.13e-05 8.33354e-05 0.000204567 -1.6301e-06 4.52938e-05 -1.70364e-05
internal_weight=0 1.06038e+10 5.05489e+10 1.52029e+09 9.08353e+09 2.78816e+10 2.26673e+10 1.31218e+09 2.08114e+08 6.20265e+09 1.48751e+10 7.79221e+09 2.88088e+09 1.83101e+10 9.57147e+09 6.1443e+09 1.45891e+10 7.77883e+08 5.34298e+08 1.73141e+08 3.9717e+09 7.7001e+09 2.17259e+09 1.75561e+09 3.49734e+07 1.12527e+09 1.35203e+09 4.55034e+08 4.59806e+09 3.31318e+09 4.81864e+08 2.39154e+07 2.61437e+09 2.9602e+08 8.37695e+09 1.1058e+07 1.23916e+08 8.62413e+09 6.21212e+09 8.06051e+08 9.68599e+09 2.49969e+09 3.93429e+08 5.99284e+09 2.32416e+08 1.06095e+09 3.39235e+09 1.77825e+09 2.55787e+09 3.10204e+09 8.58038e+09 7.86052e+09 1.57608e+09 2.91085e+08 2.0008e+08 2.55963e+09 3.1922e+08 5.42205e+09
internal_count=284254 159741 124513 59182 100559 34945 89568 41466 17716 54946 47296 42272 45613 29336 5609 54916 47084 19934 21532 12403 38244 42169 16672 30944 5313 14669 25053 16883 27101 20288 13678 3032 27516 6256 23671 2281 9906 16866 23413 11289 12470 26629 11645 4532 4388 20467 8714 18132 14803 15068 16861 15057 12903 4586 8255 8802 3380 10934
cat_boundaries=0 4 8 12 16 20 24 28 32 36 40 44 48 52 56
cat_threshold=2687000772 271108613 2722103345 671111688 3626573956 70829700 541065281 671697416 3493355524 69846657 2724462913 537395720 12846670 1635783072 1267712 272785555 1216742248 1082130530 75696640 327894 3228114945 336644740 1616905029 537397784 143067184 1140851042 83953664 13959318 3221817351 2483618816 58474561 85459048 3224961165 337691269 587202893 536877320 138674920 1627654432 67324416 1346724003 134490732 1099432358 215041 1623347203 69754884 70025349 2684355961 680004376 142770690 1636041072 43734016 273096707 12717331 1090519120 1133400064 272974053
shrinkage=0.1


Tree=9
num_leaves=59
num_cat=17
split_feature=8 72 8 8 104 72 8 25 18 76 25 31 76 44 12 0 12 226 225 196 8 198 12 201 224 0 40 220 200 0 0 0 0 208 236 49 0 0 137 220 0 209 0 212 0 0 97 208 0 0 233 0 196 236 233 109 0 0
split_gain=6059.27 1451.2 1426.06 349.095 304.048 262.893 215.488 76.3743 70.5608 68.0047 66.2116 66.1491 64.2405 62.6316 53.6812 50.7122 43.452 37.4516 31.6209 31.5778 30.685 27.9244 27.5026 27.1129 24.6429 23.4486 23.0886 22.5736 22.5297 25.537 20.9582 20.045 19.1882 19.0979 18.8756 18.5193 18.256 18.0182 17.8231 17.016 16.8611 16.7946 16.7812 16.9006 16.152 15.842 15.8361 15.2378 15.2002 14.7989 15.7588 14.7421 14.1908 14.1395 13.1633 12.8139 12.507 12.4458
threshold=0.0028529692767038889 0.0041168137837790065 0.0015591594367588256 0.0041261901342611257 0.0086041077783035862 0.00062190015903652656 0.0022185070872606052 -0.0014275438734330235 0.36062602698802954 0.0041550329021807445 -0.0014275438734330235 30679.589262248439 0.012858614868591531 0.0020384381909418106 0.0016742127395391684 0 0.0026606135050458849 0.0019778519072969577 0.0015596034936606886 0.00091426982980609384 0.008291285525779497 0.0048448988086395159 0.0034099058709139642 0.0046769354367199069 0.0036179598386890392 1 0.00024042698213185842 0.00071007171473978596 0.0017571851096460376 2 3 4 5 0.0015179679302509753 0.00040361637366004294 0.00019161924005306455 6 7 0.0012194822775200012 0.00069060792073283891 8 0.0014422782854986353 9 0.00061577603150853998 10 11 325.22821292915961 0.00084296447499916942 12 13 0.0010446907836012544 14 0.0013814614250177695 0.00045156899432186043 0.00083759846165776264 1.7524261107037207e-06 15 16
decision_type=2 2 2 2 2 2 2 2 2 2 2 2 2 2 2 9 2 2 2 2 2 2 2 2 2 9 2 2 2 9 9 9 9 2 2 10 9 9 8 2 9 2 9 2 9 9 2 2 9 9 2 9 2 2 2 2 9 9
left_child=2 3 5 7 8 15 11 46 18 21 41 16 24 30 35 26 34 20 -3 36 -10 38 42 57 51 -21 -1 31 29 -11 52 -16 -30 37 40 54 -15 -20 -5 -24 -4 -8 -12 -44 -25 -36 -2 -27 -41 -18 -51 -6 -9 -32 -7 -13 -56 -14
right_child=1 4 6 9 12 14 10 13 17 28 22 55 23 19 27 -17 49 -19 33 25 -22 -23 39 44 -26 47 -28 -29 32 -31 53 -33 -34 -35 45 -37 -38 -39 -40 48 -42 -43 43 -45 -46 -47 -48 -49 -50 50 -52 -53 -54 -55 56 -57 -58 -59
leaf_value=-5.9570783073691537e-05 -6.0198788088617526e-05 3.41506924024124e-05 -1.6249902059567711e-05 4.1063333353618028e-05 0.0001541697527172773 -3.3378276490547056e-05 -8.9122884882578363e-05 7.6772187144768964e-06 0.00017703557644924901 0.00010860641812035248 2.4003626780651896e-05 -1.2389915918271621e-05 0.00037247271479292157 5.4933420747357322e-05 -2.524240907642831e-05 -3.5655592436573564e-05 1.7218322694443219e-05 0.00013815875653904272 0.00014697326415072097 7.9532556963544306e-05 0.00024334589041426791 3.7515574110632524e-05 1.7175787741574967e-05 0.00058806457665732032 0.00034045337447750489 4.8719452145888078e-05 -4.5294167463919688e-05 -7.9599434714124488e-06 0.00014256567522487413 7.3970973736266313e-05 3.0744985837288237e-05 -1.4724369339188233e-05 0.0001033116606558097 0.00018537707057987923 -6.5605813649675844e-06 -7.1706715049557414e-05 2.9987561301783098e-05 0.00010667427611960951 8.0639803185120787e-05 5.127477298124471e-05 -5.3273848280994514e-06 -6.0181115584011224e-06 9.3717346375827383e-07 1.5823195033247836e-05 0.00040587873410706391 7.1571151305108634e-06 4.6153486800187275e-05 6.8240656637022341e-05 2.741791173265075e-05 -5.7333667976798309e-06 7.0634660465796535e-06 0.00025168755260003274 3.3889525604828907e-05 4.6960919623191323e-05 -3.1227080104196487e-05 -6.233985305039367e-05 -2.2015524568505528e-05 0.0002214538388122754
leaf_weight=1785289459.5976562 85692488.40234375 35438013.124511719 2295148257.7216797 131761333.79882812 18750538.617553711 2865383661.3398438 70356403.7890625 439384245.76367188 233257593.49493408 370987192.6652832 1059582363.6870117 67099528.88671875 17245786.879333496 492989437.06982422 3660227210.5021973 4338213019.8671875 861053866.12548828 161272178.26000977 201833865.15148926 484596856.01953125 99577130.418762207 246185854.80078125 1520322378.2324219 8224976.5244598389 27729559.106933594 1276628332.2425537 3099381661.1054688 1968386115.6621094 166697024.44818115 499496718.17553711 1094466010.6196289 3588120018.4589844 492279396.0123291 58926024.153686523 1808863589.6699219 96770132.203125 724492371.37841797 246398066.7565918 834383501.42169189 317770152.76489258 3678487748.296875 37161840.142578125 1336222876.8167725 1776898109.1953125 11918659.596801758 1574831367.15625 16735058.01171875 582224329.00195312 1673891460.2211914 1430525614.921875 2940160292.0727539 89496493.38180542 389734111.18164062 1057036106.3884277 2267291903.2246094 218931349.56542969 4212523331.6113281 7983773.3936767578
leaf_count=369 90 642 5545 1534 924 3093 16 2674 9026 7597 5947 130 2144 5177 5949 3669 3928 5470 6213 6193 5814 2639 8538 1824 2931 12455 1496 4474 4270 7929 8466 7270 10088 2413 5125 9 5970 6087 12996 2516 10843 120 5685 8953 1851 5503 139 6852 10497 4660 11480 6284 3018 9370 2612 82 6004 661
internal_value=0 6.85759e-05 -1.45681e-05 5.5249e-05 0.000171267 -2.97126e-05 4.06017e-06 4.28599e-05 0.000150371 8.52706e-05 1.75315e-05 -2.9967e-06 0.000290723 4.42015e-05 -2.28856e-05 -4.3524e-05 -2.06296e-06 0.00017771 0.000125475 5.31537e-05 0.000196874 6.75813e-05 1.86219e-05 0.000393757 0.000256342 5.99412e-05 -5.05121e-05 -1.74567e-05 9.92921e-05 8.87321e-05 3.35064e-05 -2.00357e-05 0.000113242 0.000131856 -6.1437e-06 -2.81851e-05 4.00888e-05 0.00012482 7.52424e-05 2.51428e-05 -9.52396e-06 -6.03992e-05 1.31335e-05 9.43378e-06 0.000480269 -1.76121e-07 -4.28224e-05 5.48338e-05 3.12243e-05 5.23571e-06 2.87506e-06 0.000234796 1.99985e-05 3.87119e-05 -2.77344e-05 -5.06222e-05 -2.52387e-05 0.000324684
internal_weight=0 1.06038e+10 5.05489e+10 9.38577e+09 1.21805e+09 2.78816e+10 2.26673e+10 6.64398e+09 1.0367e+09 2.74179e+09 7.79221e+09 1.48751e+10 1.8135e+08 6.54155e+09 1.86587e+10 9.22288e+09 1.45891e+10 4.94107e+08 5.42596e+08 3.56093e+09 3.32835e+08 1.21233e+09 7.68469e+09 4.53732e+07 1.35977e+08 2.34345e+09 4.88467e+09 9.21673e+09 1.52946e+09 8.70484e+08 2.98062e+09 7.24835e+09 6.58976e+08 5.07158e+08 9.35733e+09 9.44197e+09 1.21748e+09 4.48232e+08 9.66145e+08 3.51198e+09 5.97364e+09 1.07518e+08 4.1727e+09 3.11312e+09 2.01436e+07 3.38369e+09 1.02428e+08 1.85885e+09 1.99166e+09 5.23174e+09 4.37069e+09 1.08247e+08 8.29118e+08 2.1515e+09 9.3452e+09 2.86031e+08 6.47982e+09 2.52296e+07
internal_count=284254 159741 124513 107457 52284 34945 89568 60404 35665 47053 42272 47296 16619 60175 29411 5534 47084 20310 15355 36647 14840 17169 42136 6480 10139 25500 1865 17693 29884 15526 23528 13219 14358 14713 27016 11718 11147 12300 14530 21551 16388 136 20585 14638 3675 10628 229 19307 13013 20068 16140 7208 5692 17836 11709 212 8616 2805
cat_boundaries=0 3 7 11 15 19 23 27 31 35 39 43 47 51 55 59 63 67
cat_threshold=2684354560 67127296 4194304 675547242 1099172194 83970560 1078132883 134481738 1627394336 9640960 1418731603 1210654741 271106692 570687833 671633928 2418614276 77644421 541139525 671095320 147065449 1098907936 84428832 1346838723 135005768 1636307232 1075526144 268836915 134480458 3774877994 2148743684 276963523 3492356100 271633028 1616904525 537395992 201490946 3783524656 76764160 341254145 1476805748 1207959914 75573248 8847510 2686984196 67684993 536871169 671089160 213911210 1635778914 84099072 1078403139 134351392 562299250 76239360 1094918167 3290972180 471401616 56624192 201855752 0 51712 2097152 536871424 1208353640 1073741922 75581440 1073741846
shrinkage=0.1


Tree=10
num_leaves=59
num_cat=16
split_feature=8 8 108 104 104 8 8 40 29 40 132 25 0 216 76 82 196 44 133 198 216 0 0 196 0 18 50 0 40 51 0 229 76 0 208 0 141 153 224 224 0 229 0 0 200 0 0 229 198 208 65 0 198 97 233 0 216 0
split_gain=4916.58 1254.35 1110.96 273.92 254.309 197.24 167.434 95.4083 62.0731 58.3701 56.5895 53.7977 50.6768 43.8237 38.7168 35.509 35.2174 29.3385 28.2727 27.3886 26.7706 26.5998 26.5492 23.4693 23.1325 22.5725 22.4381 22.2814 22.253 20.4524 19.7284 18.8236 18.2828 17.9804 17.8117 17.3733 17.0832 22.9142 16.9676 16.8336 16.3863 16.2878 19.5368 14.8602 14.7488 14.2941 14.1606 14.0399 14.2469 13.8817 13.7237 12.7525 12.7167 12.6858 12.5184 12.2473 12.2363 12.1923
threshold=0.0029636047221547001 0.0016435230093534172 0.0067234863395414721 0.0093236999262595512 0.00086442213982367542 0.0039773403262348085 0.0022335500046354977 0.0034072683691175163 21350.847088784001 0.0021098919014132318 10.340212765957448 -0.0014275438734330235 0 0.0033995937560144843 0.0011008475605741126 0.073168594390153899 0.0013512703488959617 0.0012932350690252447 0.00069862441159784805 0.0048448988086395159 0.0018184480531589896 1 2 0.00060639459404689068 3 0.29236087203025823 0.10758354514837266 4 0.00024042698213185842 0.0015153165441006424 5 0.00095919790328480314 0.02139705431177984 6 0.00084296447499916942 7 0.0013983309618197384 0.0019370669252249757 0.0018782757489724249 0.00074076824177587996 8 0.00063900041277520369 9 10 0.0017571851096460376 11 12 0.0007256668177433313 0.0048448988086395159 0.00069879601643562837 226.63533400730026 13 0.0020093063657996273 343.63364296644897 0.00083293524221517156 14 0.0018184480531589896 15
decision_type=2 2 2 2 2 2 2 2 2 2 10 2 9 2 2 2 2 2 10 2 2 9 9 2 9 2 2 9 2 2 9 2 2 9 2 9 10 2 2 2 9 2 9 9 2 9 9 2 2 2 2 9 2 2 2 9 2 9
left_child=1 4 5 7 12 8 10 24 15 19 17 39 28 22 29 30 40 41 43 31 27 -20 38 33 56 -26 -18 -11 -1 -6 -2 45 -15 -16 51 -25 -17 44 -5 -8 -9 57 -43 -13 -38 -7 -33 -32 -49 -39 -12 -23 -36 -10 -14 -19 -4 -3
right_child=2 6 3 13 14 9 11 16 53 20 50 18 54 32 23 36 26 55 21 -21 -22 34 -24 35 25 -27 -28 -29 -30 -31 47 46 -34 -35 52 -37 37 49 -40 -41 -42 42 -44 -45 -46 -47 -48 48 -50 -51 -52 -53 -54 -55 -56 -57 -58 -59
leaf_value=-5.347830961273966e-05 4.4994758273795387e-05 -2.8227331234546071e-05 6.2254037836042761e-05 0.0002485410474469979 -2.3930405963668955e-05 6.4306920275675615e-05 -7.6583204173137051e-05 0.00016368149310880349 -5.182242196146627e-05 9.4463559023977411e-05 -5.7977861626245955e-05 2.1837294782298277e-05 -3.4626442953650014e-05 0.00038121935651042223 -2.6052220611549107e-05 2.9081221155308593e-05 0.00016144358228273775 -3.4903068908614024e-07 3.8215545614601648e-05 2.54087331945597e-05 0.00011419370163677481 2.3361396155155906e-05 0.00020112942171535283 -1.4985665040598944e-05 9.6821525981201993e-05 0.00013508564488727199 0.0002116121645822429 6.8328585046486151e-05 -3.9779520367856721e-05 -6.2341883271420921e-05 -7.8946160450055367e-07 9.7540667497346694e-05 0.00071846449570954322 -1.4506745988735802e-05 6.9039624745796194e-05 -4.6544414486120333e-06 3.2213462336395823e-05 5.5014379930919745e-05 0.00035732047982283549 7.3723286439035143e-06 9.0967868367773696e-05 -6.8742878873205403e-06 4.5741973723800302e-06 4.8877122695860224e-06 5.3288837044716873e-05 2.5575791409020808e-05 6.4741642133297743e-05 3.1880152558564075e-05 -3.4688866229622395e-06 8.1432648556280989e-05 4.0625281084405288e-07 1.2191850092526719e-05 2.882861646279801e-05 5.0325260876558599e-05 -2.5428887720578468e-05 9.7058042590817833e-06 0.00012219597889753006 -7.8308930689352147e-06
leaf_weight=1747575737.1367188 637541954.83886719 409828015.42773438 121974740.55371094 28879930.68157959 5927405416.5012207 189132063.32177734 79392484.8984375 54488664.543945312 88090430.8125 550712152.39971924 213393335.4765625 705540820.68603516 3687676484.0351562 23142284.518722534 2600725248.3789062 429661746.48925781 201355226.18518066 1991651115.2568359 851839047.0168457 234168201.27783203 257000713.60644531 1716704322.8353271 46922552.931976318 4588887796.2216797 249381005.55450439 403809383.19921875 159985618.83203125 800220804.61645508 3689164395.9589844 141938669.265625 200273278.83886719 169057014.16821289 1727549.6494140625 2802342246.8564453 91623254.545898438 2522459241.5336914 767008322.79101562 1112714762.7193604 28481135.377075195 34157236.21484375 71871868.860961914 3364025571.2304688 2676548865.9550781 1938309853.9887695 585545654.30126953 192041880.80566406 594627918.83288574 1015610400.9072266 128434345.8359375 242192537.74926758 49622620.6171875 2526574199.3027344 555333329.58300781 14104559.7109375 2471626002.578125 3092212617.3422852 47247530.761230469 1028752574.5839844
leaf_count=358 6034 818 2172 2476 8101 2703 29 2246 121 10880 109 4233 2889 3406 3965 3583 8296 6902 6166 2283 6053 10393 3426 8957 5466 12545 9005 12965 1976 19 1228 3031 588 5596 817 6142 6407 11997 3442 132 2079 9733 9435 9409 6100 2068 8479 8343 739 3249 157 13164 3550 129 2592 12535 1483 3055
internal_value=0 -1.24075e-05 6.53797e-05 0.000146419 -2.55258e-05 5.11697e-05 6.15733e-06 0.000132722 3.94449e-05 7.16646e-05 -1.05577e-06 1.70422e-05 -3.71465e-05 0.000285364 -1.82745e-05 4.09855e-05 0.000167765 -9.46718e-08 1.7968e-05 5.65697e-05 8.46105e-05 2.19079e-05 0.000256917 -1.50959e-05 0.00011194 0.000120477 0.000183656 7.89826e-05 -4.41828e-05 -2.48287e-05 3.05068e-05 6.29434e-05 0.000404646 -2.00641e-05 1.90673e-05 -1.13211e-05 4.76054e-05 5.0545e-05 0.000302553 -5.13282e-05 0.000122323 -4.07889e-06 -1.80152e-06 9.4109e-06 4.13374e-05 4.47935e-05 7.20024e-05 2.36359e-05 2.79117e-05 5.97367e-05 -4.69626e-05 1.67107e-05 3.45234e-05 -3.77243e-05 -3.09356e-05 5.76673e-06 7.89901e-05 -1.36415e-05
internal_weight=0 5.15053e+10 9.64741e+09 1.43927e+09 3.01798e+10 8.20814e+09 2.13255e+10 1.31011e+09 5.22118e+09 2.98696e+09 1.2826e+10 8.49947e+09 1.1596e+10 1.29153e+08 1.85838e+10 5.11898e+09 4.87701e+08 1.2563e+10 8.38592e+09 1.37903e+09 1.60793e+09 5.74207e+09 1.04284e+08 1.25144e+10 8.22413e+08 6.5319e+08 3.61341e+08 1.35093e+09 5.43674e+09 6.06934e+09 1.98186e+09 1.14486e+09 2.48698e+07 5.40307e+09 4.89024e+09 7.11135e+09 3.13712e+09 2.70746e+09 5.73611e+07 1.1355e+08 1.26361e+08 7.47916e+09 6.04057e+09 2.64385e+09 1.35255e+09 3.81174e+08 7.63685e+08 1.34432e+09 1.14404e+09 1.35491e+09 2.63016e+08 4.24328e+09 6.46957e+08 1.02195e+08 6.1593e+09 5.08386e+09 1.69222e+08 1.43858e+09
